0.00164948 0.000515464 0.00979381 0.00474227 0.00216495 0.0101031 0.00175258 0.00608247 0.00371134 0.00783505 0.0071134 0.00216495 0.00629395 0.00599817 0.00475029 0.00494879 0.00412371 0.00453608 0.00185567 0.00773196 0.00608247 0.000412371 0.00113402 0.00453608 0.00731959 0.00556701 0.000103093 0.00216495 0.00762887 0.00319588 0.00309278 0.00206186 0.00463918 0.0060843 0.000893857 0.00681655 -0.000493794 0.0088979 0.00260414 0.00181556 0.00440667 0.00758536 0.00123684 0.00773875 0.00166199 0.00599624 0.00505065 0.00166761 0.00285633 0.00864166 6.50492e-05 0.00476421 0.00917526 0.00195876 0.00463918 0.00474227 0.000927835 0.00494845 0.00659794 0.000927835 0.00494845 0.000832712 0.00246831 0.00139423 0.00205757 0.00346271 0.00120521 -0.00442269 -0.00477322 0.00464035 0.000451065 0.00968724 0.000453286 0.00237522 0.00788991 0.00386303 0.00312097 0.00292963 0.0100607 0.00399083 0.00325385 0.00223323 0.00536082 0.00268041 0.00938144 0.00360825 0.00431808 0.00639169 0.00572124 0.00749511 0.0046073 0.00621409 0.00381071 0.0059605 0.00378038 -0.00206512 -0.00282421 0.00503281 -0.00110469 0.00599572 0.00406256 0.0067092 0.0147231 0.00598835 0.0128478 0.00452583 0.00975141 0.00749632 0.00835973 0.00127103 0.00223155 0.00175258 0.00876289 0.00597938 0.000987278 0.00360157 0.00394439 0.00821512 0.00801527 0.0010189 -0.000266496 -0.000946786 -0.00752792 -0.00665543 -0.00359702 -0.00764484 0.00325217 -0.00223998 0.00355436 0.00353872 0.0128731 0.0027454 0.00475151 0.0104846 0.00558339 0.0114368 0.00660857 0.00586366 0.0105991 0.0075869 0.00515464 0.00391753 0.000807014 0.000628901 0.00178461 0.00151301 0.00578093 0.00113119 0.00310857 -0.00433791 -0.00951291 0.00328767 -0.00573074 -0.00505186 -0.00750924 -0.00118097 0.000963569 0.00521825 -4.40651e-05 -0.00312627 -0.00743464 0.00268941 -0.00265433 -0.00287019 0.0079807 0.0055238 0.00744701 0.00643284 0.00762887 0.00381443 0.00867193 -6.38397e-05 0.000218514 0.0103426 0.00871975 0.00412121 0.0131646 -0.00364715 -0.0149051 -0.00756887 -0.00960325 -0.0141006 -0.0018983 -0.00447991 -0.00604402 -0.0160553 -0.0103838 -0.0102083 -0.00927722 -0.00874076 -0.00220033 0.000434331 0.000113163 0.00559563 -0.00110764 0.00123384 0.00824742 0.00522238 0.00157554 0.00676717 0.00283521 0.0137995 0.0168879 0.0223181 0.0206519 0.00486913 -0.00315984 -0.00411555 -0.00806715 -0.0114038 -0.0121888 -0.0180354 -0.0134406 -0.0166017 -0.0163285 -0.0256592 -0.0255141 -0.0104433 -0.0108616 -0.012731 -0.00191372 0.0081277 0.0028157 0.00841095 0.00980167 0.00208587 0.00925962 0.00748502 0.000766449 0.0112229 0.024542 0.0177187 -0.00165072 -0.0041237 -0.000116278 0.00364262 -0.00385417 -0.0100736 -0.0302244 -0.0221849 -0.0152835 -0.0212167 -0.022417 -0.010661 -0.0113457 -0.0150236 -0.00567286 -0.00136096 0.0113384 0.00173333 -0.00228232 0.00384388 0.00938144 0.00288172 0.00775641 -0.00110706 -0.00140977 0.013872 0.0126781 0.0135758 0.000661951 -0.000155028 0.00345441 0.00529332 -0.00224311 -0.0122525 -0.0223772 -0.0157912 -0.0141607 -0.00325405 0.0120742 0.00537979 -0.0153754 -0.00523517 0.00418594 0.0111928 0.0254112 0.0146307 0.00754937 0.000918656 0.00443299 0.00661436 0.00441 -0.000322227 0.00227803 0.000534958 0.0152217 0.016642 0.0060079 0.000819668 -0.00197394 -0.0104213 -0.00747977 -0.00190876 0.00365293 0.0106882 0.0141037 0.0168781 0.0172726 0.0308737 0.0282279 0.014696 0.0157034 0.0322378 0.0278336 0.0141993 0.0100908 0.00663147 0.00628866 0.00383298 0.00429695 0.00329723 0.000525791 0.00190898 0.0111908 0.00580574 -0.00185778 0.000469888 -0.00105019 -0.0052328 -0.00199413 0.00365668 0.0142534 0.0132526 0.0143712 0.0165834 0.0232453 0.0287721 0.0267711 0.0289566 0.0278647 0.0328372 0.033592 0.014015 0.00979698 0.00592498 0.0085567 0.00885154 -0.000227524 0.00462291 0.00654157 -0.00655148 0.00434238 0.0103772 0.00614061 0.00934103 0.0124952 0.00954476 0.00335808 0.00668815 0.0136831 0.00458389 0.00269533 -0.015487 -0.0143007 -0.0151533 -0.0139073 0.00777102 0.0123249 0.0200791 0.0170148 0.0113839 0.00716061 0.00773899 0.000515464 0.00761933 0.0101046 0.00301499 -0.0017611 -0.00649061 0.00413759 0.0145644 0.012543 0.0151998 0.00318813 0.00654027 0.0168792 0.00459298 -0.0108383 -0.0108711 -0.01916 -0.0265022 -0.0321361 -0.0265142 -0.0277187 -0.0121913 0.00901631 0.00910328 -0.000977048 0.00784713 0.00221216 0.00133951 0.0101031 0.00462467 0.00866737 0.00144111 0.0124222 0.00164549 0.00360576 0.0133168 0.00423333 0.0202889 0.0129441 0.0126883 0.0138541 0.00210726 -0.00744239 -0.00457878 -0.00991357 -0.011017 -0.0209254 -0.0236024 -0.0185314 -0.0170491 0.00135953 -0.0015453 -0.00729692 0.00644248 0.00887237 0.00741898 0.0056701 0.00316275 0.00822895 0.00703156 0.0153884 0.00866413 0.00228486 -0.00257297 0.0113174 0.0127727 0.0194029 0.0235029 0.00847844 0.00453702 -0.00418679 -0.00365547 -1.43021e-05 -0.00428704 -0.0119113 -0.0158859 -0.0164293 0.00409747 -0.00346816 0.00305034 -0.00347776 0.000208365 0.00580632 0.0073398 0 0.00111753 0.00458624 0.00424299 -0.000740167 -0.00418914 -0.0157654 -0.00824375 8.24092e-05 0.0135584 0.0242274 0.0165475 0.0163709 0.00412987 0.000787261 0.00586693 -0.00814881 -0.00484449 -0.00904823 -0.00724126 -0.012021 -0.00345646 -0.00624964 -0.00563778 -0.00744434 0.00378998 0.00781298 0.00955951 0.00216495 0.000922371 0.00240734 0.00779187 0.0056885 -0.00857206 -0.00428004 -0.0143037 -0.00568115 0.0168287 0.0178068 0.0113313 0.0073433 -0.00902122 -0.0062254 -0.00101843 -0.00768319 -0.00776046 -0.0084939 -0.00422301 -0.00334688 -0.00501353 -0.00455495 -0.00743195 2.91154e-05 0.00620245 0.00279722 0.00470065 0.00762887 0.00597938 0.00188443 0.00872359 0.000802869 -0.00162779 -0.0073558 -0.0108496 -0.0168443 -0.00177245 -0.00076546 -0.00992046 -0.00782342 -0.0158005 -0.00773572 -0.00984172 -0.00071736 -0.00319649 -0.0174236 -0.0125976 -0.0147207 -0.0164133 -0.00169512 0.00876971 0.0070493 0.000881215 0.00922874 0.00696561 0.00360825 0.0036892 0.00867902 0.0059202 -0.000272029 -0.00144423 0.00533703 0.000797404 -0.000289415 -0.00714832 8.11294e-05 -0.00446959 -0.0126922 -0.00408139 -0.00575618 -0.00653118 -0.00717614 -0.00871687 -0.00901586 -0.0228432 -0.0229152 -0.00587615 -0.00313003 0.0158759 0.00654942 0.00466578 -0.000128926 0.00192939 0.00484536 0.000458179 0.0015367 0.00387106 0.00149112 -0.00400564 -0.00159936 -0.00235825 0.00212277 0.00527243 0.0124177 0.00466743 -0.00168891 0.00273907 -0.00607011 -0.00251687 -0.00448304 -0.00258039 -0.0142996 -0.0153628 -0.0149529 -0.00352776 0.00568809 0.00597786 0.0072598 0.00535406 0.00789952 0.0101031 0.00628866 0.00340206 0.0101326 0.000253593 -0.00219793 -0.000457145 0.00120001 -0.00357654 -0.00581792 -0.00508744 -0.00516619 0.00481109 0.00681572 0.00657357 0.00561834 -1.34086e-05 0.00423334 -0.00595536 -0.00663308 -0.00864883 0.000339621 -0.00681282 0.0132042 0.00633552 0.00787127 0.0119572 0.00997882 0.00783505 0.00556701 0.00979381 0.00531496 0.00150673 0.00614944 -0.00559586 -0.00243327 0.00659897 0.000471541 -0.00209929 -0.00888772 0.00285438 0.00827003 0.00435649 -0.00102382 0.00713089 0.00673583 0.0041411 -0.00455724 0.00400947 -0.000556545 -0.000931496 0.00656646 0.00662696 0.00991385 0.00757525 0.00930667 0.00804124 0.0071134 0.000309278 0.00180447 0.00611465 0.00128352 -0.00288661 -0.0092921 0.000922307 0.00771824 0.00959331 -0.00316758 -0.00554817 0.00264902 -0.000872007 -0.00269405 -0.00640013 0.00114277 -0.00172346 0.0029516 0.00538182 0.00937214 0.00291446 0.0121114 0.0150412 0.00489761 0.00481612 0.00734816 0.00164948 0.000927835 0.00216495 0.000346351 0.00161229 0.00122039 0.00165529 -0.00786365 -0.00560815 -0.00136676 0.0016382 0.00372774 0.0042872 0.00951287 0.00093198 0.00520807 0.000340827 0.00489051 0.00252781 0.00355052 0.00597443 0.00913754 0.0106906 0.012718 0.0122993 0.00985075 0.00194521 0.00989809 0.00247423 0.0043299 0.00536082 0.00133773 0.00102123 0.00953861 0.00890961 0.00392763 -0.00229757 -0.000141214 -0.0056689 0.00396178 0.00553436 0.00684411 0.00070371 0.00421259 0.00674103 0.00487165 0.00364291 0.00983932 0.0107472 0.00970465 0.0127982 0.0140118 0.0188603 0.0144959 0.00886942 0.00752989 0.000412371 0.0014433 0.0043299 0.00340206 0.00206006 0.00595747 0.00383119 0.00158502 0.0061823 0.000489996 0.00784747 0.00739719 0.00337272 0.00726097 0.00403816 0.00311442 0.00626879 0.00330071 0.00499854 0.00735099 0.0126299 0.0119305 -0.000692209 0.000863807 0.00804025 0.00770451 0.00618557 0.00639175 0.00185567 0.00948454 0.00278351 0.00453608 0.00773196 0.00608247 0.00411269 0.00150479 0.00553975 0.00111925 0.00724097 0.0012577 0.005031 0.00861543 0.00578582 0.00834993 0.000916509 0.00823032 0.00909359 0.00356153 0.00815009 0.00910428 0.00344873 0.00530408 0.00717156 0.00216495 0.00247423 0.00690722 0.00969072 0.0101031 0.00329897 0.01 0.00752577 0.00463918 0.00505155 0.00556701 0.00835052 0.00474227 0.0028866 0.00917526 0.00484536 0.00484668 0.00618595 0.0016467 0.0011339 0.00824742 0.00762887 0.00319588 0.0028866 0.000927835 0.00546392 0.00969072 0.000103093 0.00278351 0.00494845 0.00175258 0.00164948 0.00814433 0.00762887 0.00814433 0.00340206 0.0056701 0.00700392 0.00502757 0.00325038 0.00254248 0.00352351 0.00379338 0.000525746 0.00897974 0.00955112 0.00235101 0.00982725 0.00841064 0.00380261 0.00547071 0.00475809 0.000838409 0.00283236 0.00929907 0.00391768 0.0101031 0.00979381 0.000206186 0.00206186 0.00865979 0.00484536 0.00278351 0.00329897 0.00742268 0.00369425 0.00856304 0.0059049 0.00643744 -0.00277875 0.00633787 0.0072561 0.00721373 0.00222478 0.00280123 0.00412779 8.81879e-05 0.00395281 0.00150873 0.00601432 0.00922731 0.000100465 0.00347412 0.00657739 0.00289828 0.00434105 0.0071134 0.00134021 0.00412371 0.00278351 0.00517452 0.00546684 0.006573 0.00432005 0.0013233 0.00870109 0.00150731 -0.00269456 -0.00129558 -0.00137971 0.00237084 0.00309897 -0.0033776 -0.00797252 0.000128649 0.00101523 0.00207169 0.00390917 0.00429643 0.0066132 0.00738702 0.0049922 0.00674012 0.00574174 0.00803612 0.000618557 0.00865979 0.00350515 0.00140839 0.00301304 0.00659788 0.00425452 0.00550168 0.00624067 0.0157117 -0.00416327 -0.00491508 0.00636072 0.0207789 0.0146395 0.00532297 -0.0183507 -0.0281248 -0.0259188 -0.0130383 -0.0119645 -0.00296335 -0.00365382 0.00472618 -0.000829807 0.0011216 0.00646161 0.00188359 0.000511132 0.00989691 0.00958763 0.00650475 0.0101733 0.00951658 0.013246 0.0121025 0.0103907 0.00270363 -0.0127486 -0.00927027 0.00338706 0.00636725 -0.00972676 -0.0255842 -0.00796341 -0.0354634 -0.0372882 -0.0203722 -0.015422 -0.0147541 -0.0100697 -0.0031505 0.00039666 0.00690005 0.00224837 0.00898281 0.0014369 0.00278351 0.00649485 0.00452074 0.00396935 0.00630429 0.000935067 0.00713328 0.00410907 0.00939722 0.00870837 0.0027179 0.00754318 0.0113632 0.00349016 -0.0240894 -0.0218447 -0.0106031 -0.0295665 -0.0363775 -0.0295824 -0.0181887 -0.00914142 -0.0105605 -0.00679032 0.00503203 0.00518152 0.0098405 0.00895307 0.00556701 0.000245401 0.00610877 0.00632781 0.0061898 -0.0122656 0.0115719 0.00572373 0.00814883 -0.00292462 -0.00932244 0.0142676 0.0189632 0.0403657 0.00505608 -0.015388 -0.0342724 -0.0304897 -0.0462999 -0.045688 -0.0283423 -0.0221749 -0.0122711 -0.0101983 0.00251418 0.0041399 0.00313532 0.00501319 0.000668736 0.00497719 0.000188913 0.00786634 0.00484245 -0.00807979 -0.000373147 0.0055783 0.00831857 -0.00284483 0.00604743 0.0192411 0.0417627 0.0389422 0.0270799 0.00868891 -0.0264248 -0.0365628 -0.0280069 -0.0396114 -0.0282362 -0.0188094 -0.0185744 -0.00948388 -0.00517816 0.00320557 0.00918797 0.00318123 0.00237113 0.00329272 0.00206397 0.010281 0.0127433 -0.00729548 -0.00914584 0.00417493 0.00397459 0.00120199 0.00925646 0.0325901 0.0203572 0.0288756 0.0215372 0.00172825 -0.0279819 -0.0281101 -0.0124853 -0.00892842 -0.0150159 -0.0141778 -0.0107159 -0.0114332 -0.00401535 0.000467403 0.000824263 0.0107764 0.0043299 0.00324558 0.00810597 0.00758818 0.00406839 0.0124466 0.00527481 0.00264498 -0.000762523 -0.00945823 0.000824403 0.0102578 0.00704525 0.0187064 0.0110119 -0.00244802 -0.0137233 -0.0207902 -0.00311987 0.00563824 -0.01392 -0.0135526 -0.000364635 -0.00142995 0.000958595 0.00240238 0.00670689 0.00159527 0.00886598 0.00160291 0.00898714 0.0103339 0.00873667 0.027547 0.00456706 -0.00251627 -0.0193373 -0.0275134 -0.0136727 0.0138733 0.0150938 0.00882759 0.0351517 0.0147846 -0.0109247 -0.00232263 -0.0082765 0.00258623 -0.0120086 -0.0107447 -0.00320888 -0.007623 0.000985624 0.00704421 0.0087027 0.00184299 0.00762887 0.00121514 0.00905981 0.00611292 0.0116022 0.0236713 0.00648113 -0.00405473 -0.0164034 -0.026772 -0.0342888 0.0027731 0.0173382 0.0237175 0.0355352 0.0346525 0.0230188 0.028457 0.00949035 0.00202952 -0.00554203 -0.00950894 0.00504547 0.00464303 0.00362209 0.00429944 0.00567847 0.00619231 0.00371134 0.00630339 0.00956273 -0.000793365 0.0107673 0.00622976 0.00285049 -0.0125891 -0.0073225 -0.0100066 -0.00709359 0.000736505 0.00990574 -0.00242127 0.0101574 0.0122477 0.0298638 0.0242455 0.0082773 0.00162912 -0.00982909 -0.00162697 0.007832 -0.00273838 -0.00671441 0.00770346 0.00697433 0.00191551 0.00989691 0.00806245 0.0079754 0.0031263 0.000355111 -0.00744543 -0.0161663 -0.0133653 -0.00912468 0.0029449 0.0111473 0.00392645 0.00542418 -0.012004 -0.0180176 -0.0208258 0.00233758 0.0121629 -0.00295801 0.0106615 0.00189338 0.0111272 0.0100116 0.00330745 0.00310513 0.00429569 0.00847523 0.00824551 0.00731959 0.000770082 0.00238613 0.00778026 0.00285492 -0.00119574 -0.00868521 -0.0142144 -0.0110125 0.00497466 0.0044902 0.00211992 0.00136526 0.00109058 0.00652546 -0.0105201 0.0100847 0.030253 0.00366184 0.00649945 0.013569 0.0160599 0.0059526 -0.0078899 5.15682e-05 -0.00170441 0.00436212 0.00695254 0.00371134 0.00703513 0.00616417 0.00350582 0.00358628 -0.00159051 -0.00604105 -0.00907095 -0.0105482 -0.00424877 0.00928268 0.0172905 0.00661269 0.00459806 0.0126487 -0.0103847 0.000794352 0.00863645 0.0117311 0.0148506 -0.00265455 0.00376159 -0.00412778 0.000926206 -0.00536009 -0.00398075 0.00741843 0.00140418 0.00958763 0.00567813 0.00178799 0.00272638 0.000132707 -0.00813512 -0.00559466 -0.00461624 -0.00297484 -0.0146517 -0.0124959 -0.0130714 0.000190929 -0.0032121 0.0104433 -0.00377725 -0.00623485 0.00772795 0.014863 0.000174667 -0.0260282 -0.00625354 0.00449974 -0.00433488 0.00031482 0.000930769 0.00662516 0.00729421 0.000515464 0.00845361 0.00575661 0.000986261 0.00613674 -0.00343699 -0.00612751 -0.00288031 0.000171176 -0.0141273 -0.0252461 -0.0226348 -0.0213694 -0.0311174 -6.24462e-05 0.000304633 -0.00244782 0.00342747 0.0103916 0.00872413 -0.000485414 -0.00747635 0.0111885 0.000887073 -0.00749902 0.00682778 0.00277277 0.00261177 0.0028866 0.00255364 0.00494484 -0.00113338 0.00455991 -7.89892e-05 -0.0113667 -0.00216842 -0.00755699 -0.0109238 -0.0188833 -0.0183321 -0.0272216 -0.0283855 -0.00818702 0.0219528 0.0159774 0.00634142 0.00334223 0.00127846 -0.00350794 -0.00820312 0.000211976 -0.000247451 0.00346692 0.00573559 0.0079314 0.00481131 0.00525773 0.00200447 0.00891895 0.00140276 -0.0013113 -0.00220875 -0.0138809 -0.00575702 -0.00719848 -0.0102448 -0.0220097 -0.0182993 -0.018298 -0.0424663 -0.0155245 0.0214289 0.0301442 0.0153311 -0.00726834 -0.0260009 -0.00887134 -0.00011655 0.0025012 0.00420454 0.00340798 0.00370077 0.00648294 0.0042268 0.00793814 0.00773196 0.0090921 0.00114478 0.000101471 -0.00735378 -0.0162835 -0.0139975 -0.00735433 -0.0107118 -0.0236911 -0.0136525 -0.0130917 -0.0252982 -0.00577328 0.0254196 0.0264452 -0.00465653 -0.0257199 -0.0232017 -0.00111745 0.00794567 0.00501351 0.000717771 0.00161007 0.0017671 7.30983e-05 0.00494845 0.00278351 0.00195876 0.00165913 0.00878275 0.00363672 0.00508193 -0.00450636 -0.0111587 -0.012386 -0.0248777 -0.0268072 -0.0231453 -0.00834371 0.00197759 0.00253105 0.0248849 0.0177362 0.00164947 -0.00586086 -0.0232364 0.00645726 -0.00279247 0.00244208 0.00772126 0.00150127 0.00946762 0.00614096 0.000618557 0.00701031 0.00443299 0.00684678 0.00455952 0.00951113 0.00661457 0.00506377 -0.00383405 -0.0155365 -0.0186917 -0.02171 -0.0108535 0.00641054 0.0182404 0.00221059 0.00514075 0.0138612 0.016048 -0.00286889 -0.0193916 -0.0030926 0.00407543 0.00109314 0.000197871 0.00878823 0.0100495 0.00835448 0.00113402 0.00319588 0.00474227 0.00872975 0.00636552 0.00688192 0.00797943 0.0102696 0.00364527 0.000185071 -0.00680494 0.003038 0.0109163 -0.00789947 -0.00633772 -0.00722445 -0.00363321 -0.00701382 0.0241034 -0.000890604 -0.0120447 -0.00171267 0.007383 -0.00346571 0.00656979 0.00554601 0.00754353 0.00986067 0.00979381 0.00618557 0.00329897 0.000414249 0.00990824 0.00549497 0.00972 0.00528269 0.00711644 0.00520395 0.00446405 -0.00209378 0.00034842 -0.00308019 0.000329225 0.0089525 0.00455261 0.0166734 0.0286034 0.013002 0.00740072 0.0114628 0.00260543 0.000930456 0.000899255 -0.00126235 0.0080706 0.0011489 0.00597938 0.000515464 0.00979381 0.000309278 0.00948561 0.00171048 0.007175 0.00396933 -0.000810187 0.00974827 0.00759151 0.00585815 0.00997231 0.0101022 0.011596 0.0135379 0.0164315 0.00757221 0.0130268 0.0148637 0.0110934 0.00932521 0.0127459 0.00163783 0.00916577 0.000406461 0.00948454 0.00721649 0.00164948 0.00268041 0.00773196 0.00134021 0.00237113 0.00257732 0.00102296 0.000815842 0.00943582 0.00606175 0.00931294 0.000149553 -0.000175449 0.00674834 0.00292039 0.00946589 0.00142459 0.00377088 -1.08234e-06 0.00780639 0.00696082 0.00529477 0.0101874 0.00295673 0.00137414 0.00340206 0.000103093 0.0101031 0.00268041 0.000309278 0.00340206 0.00185567 0.00773196 0.00298969 0.00917526 0.00587629 0.000618557 0.000721649 0.00824742 0.00206186 0.00113402 0.00350558 0.00586267 0.00699411 0.00546324 0.00989691 0.00185567 0.0042268 0.00835052 0.000824742 0.00659794 0.00443299 0.00268041 0.00824742 0.000206186 0.000206186 0.000103093 0.00463918 0.00453608 0.00639175 0.00804124 0.00237113 0.00185524 0.00927335 0.00267796 0.00134894 0.00877995 0.000961781 0.000760411 0.00862209 0.000484546 0.00713519 0.00666049 0.00859149 0.00567974 0.00866881 0.0024836 0.00095716 0.00341632 0.00663002 0.0028877 0.00185567 0.00453608 0.00989691 0.000103093 0.00762887 0.00917526 0.0057732 0.00278351 0.00701031 0.00114251 0.00276254 0.000622767 0.00970252 0.00762934 0.00946825 0.00531103 0.00105427 0.00475624 0.00255694 0.00383072 0.00404931 0.0023671 0.00190222 0.00640913 0.00826997 0.00378094 0.00340462 0.00555901 0.00214392 0.00535062 0.00721649 0.00371134 0.000412371 0.000927835 0.00495381 0.000619814 0.00216596 0.00295063 0.00435412 0.00394017 0.00496713 0.00727367 0.00118617 0.0074718 0.00204252 0.00264581 0.00861941 0.000115205 0.00673669 0.00744685 0.000501662 0.00647362 0.00393926 0.00553918 0.00296253 0.00379826 0.0029842 0.00763243 0.00247936 0.00649485 0.00917526 0.00979381 0.00929638 0.00423039 0.00575357 0.00496597 0.00464884 0.00763482 0.00303085 0.00615379 0.0052928 0.00572117 -0.00249313 -0.0023616 -0.00107797 0.00489728 -0.000629546 0.00547292 0.00684735 0.00705825 0.00802694 0.0026236 0.00814875 0.00307989 0.00782264 0.0047559 0.00147316 0.00505295 0.00680412 0.00319588 0.0057746 0.00446637 0.00515476 0.00896967 0.00176759 0.00559286 0.00442893 -0.00163629 0.00126455 -0.00140869 -0.000798643 0.00292117 0.00195416 -0.007038 -0.00412162 -0.00263398 0.0025026 0.00443246 0.00154727 -0.000737609 0.00509621 0.00101493 0.000653209 0.00494564 0.000589283 0.00567218 0.00587629 0.00329897 0.00867464 0.00117317 0.00790066 0.00815769 0.00680307 0.00758101 0.00011936 -0.00379424 -0.00407658 0.000185195 0.00138818 -0.00261158 0.0014272 0.00239402 0.00237759 -0.00387996 -0.00439558 -0.000436059 0.00498029 0.00487716 0.00276245 0.00605032 0.00886366 -0.000116329 0.0069182 0.0093958 0.000721649 0.00594557 0.00524215 0.00224737 1.02528e-05 0.00212899 0.0056141 -0.00140121 0.00078225 -0.00340559 -0.00291895 0.000368203 3.0977e-05 -0.000510191 -0.00495603 -0.000909284 -0.00440431 -0.00116247 -0.00257305 -0.00150608 -0.00527593 0.00363334 -0.000184284 0.00311445 0.00349519 0.00643717 0.00716303 0.00506528 0.000535079 0.00998741 0.00131761 0.00228169 0.0058976 0.00166809 0.00209121 -0.000617886 0.000623099 0.00339022 -0.00601869 0.00149563 0.00314198 -0.000977971 -0.000571659 0.00259375 0.00043862 -0.00206667 -0.00172182 -0.00591955 -0.00177459 -0.00093583 0.00493402 0.00813201 0.0100603 0.00908486 0.00781167 0.00556376 0.00639175 0.00662468 0.00603191 0.00829331 0.00434913 -0.00115938 0.00673789 0.00425807 0.00719253 0.00671643 0.00239854 -0.00527218 -0.00511492 0.003348 -0.00493107 -0.000508287 -0.00667966 -0.00569897 -0.00744115 -0.0050387 -0.00879711 -0.000259592 0.00351738 0.00879457 0.0033964 0.00974398 0.00956289 0.00377537 0.0014433 0.00695501 0.00381888 0.00194602 0.00734564 0.00350785 0.000892059 0.00858665 0.00133184 0.00203296 0.000159611 0.00157496 -0.00261524 0.0012652 -0.0035211 -0.00273918 -0.00908553 -0.00274555 -0.00411737 -0.00980487 -0.00207344 0.000501103 0.000380029 0.00876122 0.005193 0.00433708 0.00387203 0.000539743 0.00134021 0.00896736 0.00584441 0.00773448 0.00352349 0.00945031 0.00545069 0.00958757 0.00780886 -0.00088847 -0.00693653 -0.00621424 0.00126336 -0.00290338 -0.00193596 0.00165269 -0.00473849 -0.00669463 -0.0068428 -0.0109314 -0.00459007 0.0056379 0.00570938 0.00659705 0.00678847 0.00207544 0.000635795 0.00555502 0.0101031 0.000403052 0.00997263 0.00588807 0.00493337 0.00713118 0.0100705 0.00821509 -0.00292355 -0.00465182 -0.00794794 -0.00477448 0.00129715 -0.00738214 0.00125477 -0.00231972 -0.0110256 -0.0134437 -0.0060758 -0.00529988 -0.00162287 0.000848067 0.0066429 0.00300047 0.00279801 0.00655541 0.00606531 0.00372097 0.00175258 0.00340137 0.00465881 0.00689315 0.00195505 0.0104424 0.00883225 0.00694145 0.00542135 -0.00572132 -0.00317941 -0.0021476 -0.000926379 -0.00902274 -0.010348 -0.00455627 -0.0161191 -0.00719195 -0.00588295 -0.00952789 -0.00243076 0.00397121 0.0111399 0.00988985 0.00769774 0.00184006 0.00797989 0.000782892 0.0101031 0.00659543 0.00751955 0.00249067 0.00619057 0.00555587 0.00690685 0.009727 -0.00283929 0.000148172 -0.00434608 -0.00786031 -0.0109071 -0.0133119 -0.016923 -0.0130319 -0.0153284 -0.0151506 -0.00699757 -0.0108703 -0.00657304 -0.00127023 0.0101341 0.00996477 0.00321819 0.00576508 0.0061739 0.00556631 0.00752577 0.00916953 0.00657623 0.00254289 0.00917291 0.0104671 0.00140848 0.00342571 0.00455366 -0.00796812 -0.0077074 -0.00271106 -0.00350223 -0.0101458 -0.0118464 -0.0091126 -0.0107877 -0.0109442 -0.0104862 -0.00368125 0.000490502 -0.00366213 0.00687234 0.00738872 0.0101687 0.00753599 0.00486656 0.00181634 0.00896907 0.00370752 0.00171777 0.00307706 0.0092635 0.0105021 0.00626683 0.00241586 -0.00333672 0.00135926 -0.00461501 0.000772029 -0.00974886 -0.0102774 -0.00659574 -0.00501232 -0.00547773 -0.0121235 -0.00503501 -0.00507692 -0.00333053 0.00216415 0.00984001 0.00311649 0.0058214 0.000445035 0.0046454 0.00497921 0.00587629 0.0072155 0.0047183 0.00717909 0.000831678 0.00221248 0.00536408 0.00649452 -0.00200976 0.001781 0.00153954 0.00159647 -0.0051434 -0.00981036 -0.01134 -0.0111669 -0.00413582 -0.00596286 -0.00813308 -0.00420278 -0.00268949 0.00159864 0.00701604 0.0114029 0.0106359 0.0072526 0.00635563 0.00557542 0.00103093 0.000927835 0.00730636 0.0062409 0.0067261 -0.00241987 -0.000840968 0.00553624 -0.00253447 -0.00153269 0.00394681 -0.00023339 -0.000679565 -0.003013 -0.00836364 -0.000951543 -0.00624285 -0.00536373 -0.00671409 -0.00188077 -0.00679316 0.00551788 0.00769977 0.0088644 0.00228768 0.000728256 0.00689732 0.00194695 0.00587629 0.00878772 0.000384607 0.00721687 0.00556021 -0.00119848 0.00227535 -0.00410139 -0.00373405 0.000171974 -0.00307179 0.00153617 -0.00589945 -0.000412934 -0.00185136 -0.00378723 -0.00616238 -0.00506158 -0.00581281 -0.000911106 0.00208314 0.00195972 0.00535902 0.00279139 0.000169807 0.000679884 0.00511199 0.00989662 0.00639175 0.00295518 0.000719269 0.00051623 0.00603025 0.000746291 -0.00739259 -0.00253838 -0.00672577 -0.00753564 -0.00353729 -0.00658306 -0.00592747 -0.00068557 -0.00421866 -0.00506329 -0.00626144 0.00186544 -0.00274379 -0.000832827 0.00318131 0.000298526 -0.000399838 -9.80136e-05 0.00688559 0.0101397 0.00247043 0.00587629 0.00639175 0.00381443 0.00045635 0.0023903 -0.000174627 -0.00155997 -0.00363751 0.000488356 -0.00571307 -0.00659376 -0.0023209 -0.00493944 -0.00373498 -0.00522174 -0.00627545 -0.00379346 -0.0038092 -0.00638882 -0.00258748 0.00128459 0.00102125 0.00111903 0.0059762 -0.000297518 0.00575005 0.00145264 0.00806354 0.00484536 0.00546392 0.0028866 0.00923645 0.00506287 0.000286244 0.00231075 0.00340669 -0.00199223 0.00168875 -0.0026171 -0.00275188 -0.00265582 -0.00710808 -0.00193195 -0.00397877 -0.000633729 -0.00241534 -0.00276994 -0.00341583 0.000109817 0.00176378 0.00555898 0.00149992 0.00433615 0.0054814 0.00193665 0.00157414 0.00412371 0.00556701 0.00381443 0.00461212 0.00322447 0.00220659 0.000547068 0.00275199 -0.00186332 0.00283707 -0.000735407 0.00154924 0.00100149 -0.00285246 -0.00268154 -0.00265781 -0.00136451 0.000553585 -0.00526348 -0.000201175 0.00116717 0.00578984 0.00656529 0.0019991 0.00473819 0.00101275 0.00954006 0.00868231 0.00195876 0.00649485 0.00113402 0.00499628 0.00608286 0.00458258 0.00609566 0.000857878 -0.000260797 0.00651248 0.00628989 0.00765896 0.00599679 0.00210841 0.000510939 0.00585931 0.000219694 -0.0051061 -0.00355764 0.00556618 0.0010723 0.0086079 0.00581717 0.00165641 0.00644207 0.0054064 0.00192817 0.000610669 0.00360825 0.00639175 0.00319588 0.002476 0.00031174 0.00755859 0.00999022 0.00498291 0.00108456 0.00589939 0.00917085 0.000594446 0.0042826 0.00286447 -0.000876632 -0.000639136 0.00749009 0.000823105 -0.000563535 0.00343625 0.00845195 0.00131358 0.00895672 0.00414824 0.00757255 0.00768264 0.00432222 0.00957845 0.00804124 0.00123711 0.00742268 0.00886598 0.00762976 0.00509579 0.00846762 0.00923863 0.00514039 0.00609539 0.00202912 0.00774854 0.00745136 0.00411394 0.00262348 0.00892398 0.00406237 0.00230241 0.00887105 0.00523421 0.00933241 0.00403786 0.00777661 0.0016454 0.0041231 0.00371532 0.00701031 0.00329897 0.00793814 0.0042268 0.000412371 0.00680412 0.00927835 0.00680412 0.00607726 0.00607145 0.00874097 0.0047985 0.00881594 0.00600967 0.0036332 0.00691806 0.00389647 0.0026061 0.00422925 0.00494721 0.0071087 0.00136828 0.00859019 0.00412713 0.00748261 0.000622841 0.00675822 0.0071134 0.00835052 0.000103093 0.00835052 0.00412371 0.00701031 0.00618557 0.00247423 0.00680412 0.00608247 0.00360825 0.00618557 0.000927835 0.00175258 0.00701031 0.00371134 0.00505033 0.00651245 0.00280606 0.00525867 0.00175258 0.00103093 0.00742268 0.000206186 0.00257732 0.00690722 0 0.00597938 0.00556701 0.00969072 0.00453608 0.00793814 0.00175258 0.000412371 0.01 0.00525773 0.00958763 0.00907465 0.00697393 0.00596397 0.00399599 0.00942111 0.00351735 0.00058239 0.00258354 0.00963928 0.00717284 0.00801681 0.00424171 0.0100137 0.00202983 0.00918153 0.00368709 0.00703256 0.00756409 0.00536164 0.00463918 0.00835052 0.00154639 0.00474227 0.0028866 0.00731959 0.00742268 0.00123711 0.00701031 0.0070514 0.00234085 0.00184847 0.00286866 0.00437244 0.000551633 0.0026079 0.00597296 -0.00128232 0.00573723 0.00447453 -0.000746549 -0.00113413 0.00207795 0.00793366 -0.0021906 0.00214957 0.00630134 0.0093846 0.00812144 0.00586681 0.00948454 0.00195876 0.00938144 0.00670103 0.00216551 0.00907707 0.000397105 0.00166589 0.00723512 0.00472016 0.00384857 -0.002285 -0.00394808 -0.00831859 -0.00809352 -0.00710709 -0.0107317 -0.00889247 -0.00970859 -0.00108163 0.00154451 0.000495105 0.00271166 6.97621e-05 0.000751605 0.00279963 -0.000239457 0.008246 0.00219107 0.00226804 0.000206186 0.00597938 0.00102211 0.00980343 0.000862742 0.00851688 0.00199866 -0.000978868 -0.00914271 -0.00830892 -0.0151213 -0.018354 -0.00735738 -0.00886749 -0.00304431 -0.00526033 -0.00665713 -0.00405521 -0.0119806 -0.0162081 -0.0165431 -0.00860708 -0.0114829 -0.00448804 0.0102578 0.0112863 0.00890241 0.00573048 0.00463918 0.00927835 0.00521709 0.0092508 0.004213 0.000402697 -0.000575233 -0.0122457 -0.00382188 -0.00614873 -0.0206142 -0.00759202 -0.00227287 0.00901676 0.0156622 -0.00776902 -0.0171054 -0.00267159 -0.0323395 -0.0304978 -0.0272137 -0.0241096 -0.0173084 -0.0176911 0.000779901 0.00399493 0.0066119 0.00391283 0.00938144 0.00247423 0.00277651 0.00366536 0.00511519 -0.00158156 -0.00363577 0.0014581 -0.00730754 -0.0138202 -0.0169471 0.00277457 0.00894919 0.00898673 0.0322365 0.00413071 -0.0238248 -0.0292925 -0.0437688 -0.0291687 -0.0252828 -0.0217957 -0.0203304 -0.0182732 -0.002419 0.00255466 0.000611265 -0.00253709 0.000515464 0.00367169 0.00167227 0.00353626 -0.00331742 -0.00224949 -0.00155909 0.00470421 -0.00771947 -0.00177833 -0.00482041 0.00893108 0.015682 0.00300782 -0.00998126 -0.0337805 -0.0457162 -0.0520118 -0.069124 -0.0912799 -0.069084 -0.0361045 -0.0121665 -0.0162206 -0.00383606 -0.0031077 -0.00325281 -0.000275917 0.00806019 0.00332952 0.008037 0.00634519 -0.0044279 -0.00289321 -0.00669572 -0.020012 -0.021137 -0.0357138 -0.028404 0.0036473 0.0158621 -0.00408763 0.00194461 0.0105326 0.0308108 0.0255992 -0.008631 -0.0156536 0.00385543 0.0113349 0.0104787 0.0197266 0.02605 -0.00634888 -0.0142164 0.00999082 0.000206186 0.00197 0.00815927 0.00486092 0.00318271 0.00356273 -0.00371271 -0.0131367 -0.0273647 -0.0467629 -0.0106812 0.00357404 0.0137351 0.0332258 0.047422 0.0482507 0.0544778 0.100868 0.0945809 0.0566296 0.0355885 0.0258338 0.0323023 0.0305721 0.0669063 0.0334825 -0.00241557 0.000383463 0.00206186 0.00175314 0.010273 0.00482945 0.00405575 -0.000569179 -0.00587967 -0.00922874 -0.021178 -0.00975753 0.0133877 0.0195589 0.0283219 0.0420048 0.0294383 0.0308878 0.0215552 0.0467769 0.0901432 0.0745374 0.0581417 0.0253146 0.0293227 0.0439834 0.0691869 0.0447472 0.0167073 0.0025788 0.00247423 0.00617018 0.00207847 0.00931485 0.00147383 -0.0175725 -0.0188741 -0.0127608 -0.0252345 -0.0141506 0.0172319 0.0406509 0.00369353 -0.00350395 -0.0285485 -0.0328303 -0.0464762 -0.0285522 -0.00666022 -0.000433819 0.0171192 0.00974423 0.0182299 0.0238296 0.0366442 0.0227203 0.0131142 0.0049333 0.00618557 0.00580295 0.00812872 0.00823974 -0.00674627 -0.0374701 -0.019316 -0.00551264 -0.0119318 0.00443527 0.00202963 0.00869688 0.00802341 -0.00148946 -0.0210325 -0.0488661 -0.0745269 -0.0600107 -0.0520604 -0.0392693 -0.0372604 -0.0159668 -0.0178892 -0.024088 -0.00495967 0.0131326 0.00823535 0.000122224 0.00103093 0.00082743 0.0021844 -0.00168484 -0.00938704 -0.0323067 -0.0215758 -0.00359243 -0.000552342 -0.000197544 0.00967777 0.0131396 0.0217314 0.0166608 -0.016005 -0.0228373 -0.0141225 -0.0220588 -0.0369736 -0.0451574 -0.0364123 -0.0202146 -0.0385029 -0.0293029 -0.0128363 0.00594784 0.00349508 0.0100468 0.0101031 0.00762533 0.00775777 0.00599082 0.00300137 -0.0118312 -0.0021133 -0.0168904 -0.0291839 0.00908025 0.0133828 0.00227684 0.00109878 -0.0229434 -0.0347652 -0.0173457 -0.00957098 -0.00337947 -0.0127704 -0.0413399 -0.0354695 -0.0219966 -0.0230203 -0.0151308 -0.00479683 0.00752456 0.0101944 0.00671468 0.00587629 0.00246615 0.00912761 0.00596344 0.0159709 0.00826812 0.0241612 -0.00592512 -0.0235995 0.0127453 0.00510915 0.0139707 -0.00325298 -0.0351814 -0.0600986 -0.0438504 -0.0453438 -0.00273983 -0.00160826 -0.0233195 -0.0219118 -0.0349068 -0.0290954 -0.0110736 0.00362667 0.00933887 0.000331416 0.00404114 0.00391753 0.010095 0.00646966 0.0019636 0.0178355 0.0207468 0.0296573 -0.0055056 -0.0158762 0.00311859 0.0369156 0.0125952 -0.00725285 -0.0194148 -0.043017 -0.033855 -0.037911 -0.00971268 0.0104556 -0.00870684 -0.0100712 -0.0298088 -0.0209186 -0.0147073 -0.0105677 0.00734857 0.00189552 0.00584681 0.000412371 0.00886443 0.00403868 -0.000431906 0.00211059 0.0177173 0.0340932 0.0133028 -0.0151318 -0.00377915 0.010006 -0.00916907 -0.0318759 -0.0338735 -0.0168423 -0.000427184 -0.0226964 -0.00269869 -0.0033965 -0.0214775 -0.0191087 -0.0296506 -0.0195764 -0.0183268 -0.00604406 -0.00470837 0.00738579 0.00916414 0.00453608 0.00907216 0.00916488 -0.00178323 -0.00653503 0.000301077 0.024682 0.00909009 -0.0196366 -0.0172189 -0.0242739 0.00468204 0.00420662 5.5618e-05 0.00199202 0.00847781 0.0022606 -0.000291349 -0.0255216 -0.0145774 -0.00994963 -0.0200815 -0.0234585 -0.0158281 -0.00906665 -0.00107586 0.00882631 0.00178148 0.00989691 0.00628349 0.00307084 -0.00254045 -0.0112805 -0.00666112 0.00840114 -0.0171538 -0.0511058 -0.0263454 -0.0207629 -0.0153623 0.00909426 0.020371 -0.0151264 -0.00761642 -0.0178712 -0.0176632 -0.0126602 0.00459808 -0.00859914 -0.0254137 -0.0190097 -0.00484073 -0.00360634 -0.00428774 0.00258265 0.00888493 0.00783505 0.00566247 -0.000982317 0.00247592 -0.00847378 -0.0169145 -0.00771084 -0.0111572 -0.0229731 -0.0115523 -0.0217645 -0.00503608 0.0168121 -0.0130543 -0.0526422 -0.0223819 -0.0207675 -0.00152233 0.00308855 0.0134814 -0.00623611 -0.029112 -0.00148217 -0.00219778 -0.00486864 -0.00386133 0.00716899 0.00701031 0.00989691 0.00412371 0.00446612 -0.00303885 -0.0107409 -0.0208122 -0.0129471 -0.00343739 -0.0189504 0.00679038 -0.0120845 0.00417279 -0.0208041 -0.0282272 -0.0290245 -0.0252645 0.00300914 0.0224291 0.00292557 0.00441709 -0.0114253 -0.0131118 0.00215455 -0.00237877 8.2569e-06 0.00345163 0.00445325 0.00453608 0.00474227 0.000103093 0.00505268 0.00683034 -0.0158179 -0.00631263 0.00514519 0.0101353 -0.00627077 0.0161828 0.00847157 0.013155 -0.00602017 -0.0251845 -0.0243803 0.00362785 0.0227963 0.0251167 0.00935831 -0.0019166 -0.0100566 0.00383073 0.00991166 0.00204867 0.000434604 0.00376711 0.00449472 0.00268041 0.00793814 0.00793814 0.000865607 0.00365318 0.00278382 -0.00320077 -0.00760785 0.0073028 0.0198086 0.0241399 0.0202882 0.00831922 0.0174911 0.0174052 0.012038 0.0109603 0.0156556 0.0144648 -0.00292502 0.00617924 0.00255517 0.0094868 0.00278981 0.00905721 0.00781582 0.00602851 0.00322131 0.00845361 0.0042268 0.00587629 0.0027807 0.00565269 -0.00133285 -0.00625718 -0.0208529 -0.0167438 0.00185257 0.00341683 0.0165261 0.00464135 -0.00229157 0.00399787 -0.000822949 -0.00544693 0.0095757 0.019286 0.00660837 0.0190734 0.0166091 0.0092367 0.000845405 0.000832555 0.0101906 0.00672092 0.00867535 0.00453608 0.00865979 0.00742268 0.00298692 0.00145106 0.003699 -0.00472913 -0.0107756 -0.0120536 -0.0289017 -0.0300778 -0.0151069 -0.0101975 -0.0120166 -0.0049656 -0.0186928 0.00249017 0.00553215 0.0126996 0.00732405 0.0120458 0.0138844 0.00693058 0.00341515 0.00356221 0.00934503 0.00146306 0.00478617 0.00649485 0.00721649 0.00618557 0.00525773 0.00690661 0.00930105 -0.000397464 -0.00368241 -0.00134857 0.00212688 -0.00682009 -0.00809403 -0.00214455 0.00634648 0.00415082 -0.00674017 0.00150642 0.0171381 0.0107504 0.00758993 0.0214504 0.0157143 0.00978972 0.000586378 0.00838729 0.0071285 0.00319588 0.00752577 0 0.00917526 0.000206186 0.00835052 0.000103093 0.00443299 0.00628807 0.00687902 0.00254929 0.0080245 0.00204813 0.00106318 0.00986804 0.00834368 0.00953826 0.00315336 0.00290572 0.00530598 0.00902991 0.00590063 0.00428515 0.00750099 0.0027452 0.0041432 0.00752648 0.00886598 0.00670103 0.00412371 0.00319588 0.00824742 0.00443299 0.00649485 0.00391753 0.00536082 0.00824742 0.00278351 0.000824742 0.00185567 0.00206186 0.00762887 0.000618557 0.010205 0.00957101 0.00184006 0.00288595 0.00670103 0.000309278 0.00175258 0.00216495 0.00164948 0.00546392 0.0101031 0.00494845 0.00865979 0.00804124 0.000412371 0.0043299 0.00164948 0.00278351 0.00670103 0.000618557 0.00680412 0.00608462 0.00242063 0.00482795 0.0095045 0.00611336 0.0104767 0.00881071 0.00353497 0.00990272 0.00288118 0.0022345 0.00105021 0.00720767 0.00268391 0.00679474 -0.000726945 0.00629797 0.000218327 0.00700982 0.00597938 0.00752577 0 0.00989691 0.00979381 0.0101031 0.00216495 0.00886598 0.000927835 0.00455763 0.0061557 0.000665535 0.00350836 0.00317655 0.00319943 0.00943392 0.0049807 0.00532359 0.006262 0.000906311 0.000889791 0.00458277 0.00182957 0.00214537 0.0065834 0.000170101 0.00169859 0.00413467 0.0016291 0.00699748 0.0028866 0.01 0.00123711 0.00556701 0.0102025 0.00391702 0.00281303 0.00416427 0.00486027 0.00291822 0.00628313 0.00654051 0.00686862 0.000894766 0.00337914 -0.000299722 0.00256082 0.00341952 -0.00077539 0.00372094 0.00854804 0.00967631 0.000635145 0.00221954 0.00757695 0.00615892 0.00569163 0.00681515 0.000724997 0.00701031 0.00237113 0.00360825 0.00225468 0.00887334 0.00944265 0.00333668 0.00915008 0.00411318 0.00255144 0.00609069 -0.00173042 0.0053733 -0.000959708 -0.00289033 -0.00105262 -0.00115398 0.00718234 0.00443299 -0.00162721 0.000876488 0.00633631 0.00655298 0.00401239 0.000169819 0.0096076 0.002133 0.00300223 0.00413221 0.000206186 0.000206186 0.00813961 0.00765667 0.0102179 0.00937552 0.00907106 0.00886203 0.00433566 0.00402122 0.00469252 -0.00364248 -0.00460658 0.000706517 -0.00404525 0.000206001 -0.00405025 0.00639269 0.00612014 0.000898306 -0.00111643 -0.00133004 -0.00232375 0.00626147 0.000465424 8.77552e-05 3.75847e-05 0.0102187 0.00536082 0.000412371 0.00599805 0.00283134 0.0092236 0.00107005 0.00450016 0.00752732 0.0076653 -0.00109361 0.00578026 -0.0022853 -0.00331304 0.00117712 0.00249255 -0.00223185 -0.000255411 0.0030941 -0.00220436 -0.00347661 -0.00349018 -0.00012272 0.00581294 0.00664892 0.00710975 0.00771577 0.00739502 0.000302275 0.00546392 0.000819403 0.000240402 0.000131833 0.0075102 0.00247435 0.00645485 0.00160226 0.0017122 0.00123842 -0.000801053 -0.00461768 0.00504984 0.0051867 -0.000684124 -0.00339999 -0.00552272 -0.00196636 -0.00203717 0.00187052 0.00338484 -0.00102223 0.00211358 0.00422669 0.00920636 0.00369331 0.00164447 0.00772884 0.00889429 0.00935709 0.00962502 0.00159055 -0.00118986 -0.000900354 -0.0011155 0.00404013 0.00208983 -0.00271726 -0.00778868 0.00210856 0.00475705 0.00453635 0.00151187 0.00416026 0.00675227 -0.00226369 -0.00144752 -0.00303007 0.00228957 -0.00159243 -0.000111541 0.00529835 0.00462784 0.00380299 0.00524925 0.0101027 0.00845361 0.00700286 0.00939114 0.00123974 0.00643359 0.00568062 0.00667667 0.00606776 0.00376915 -0.00312756 -0.00334617 0.000191363 -0.00145229 0.000323808 -0.00161737 0.00247388 0.00391147 -0.00649442 0.00458621 0.00549472 0.000303607 0.00224668 -0.000335713 0.00550186 0.00470375 0.00686308 0.00950586 0.00878649 0.00618557 0.00938581 0.00795693 0.00596584 0.00554559 0.00525829 0.000863586 -0.000530612 0.00883396 -0.00214221 -0.00137933 0.00312111 0.00113178 -0.00306193 0.000128638 -0.00122525 0.00277826 0.00152646 0.00239591 0.00300717 0.000935036 -0.00766997 -0.000308486 -7.31345e-05 0.00230774 0.0100436 0.00963297 0.00734475 0.0085567 0.00774655 0.000839216 0.0055006 0.00864831 0.00784971 0.00323812 0.00642074 0.00293227 -0.000969445 -0.00599916 -0.0013664 0.00422052 0.00216084 0.00627648 0.0074757 0.00365907 0.00266724 0.000784115 0.000624488 -0.00523376 -0.0068819 0.000101055 0.00523565 0.00186362 0.0069754 0.00305786 0.00743631 0.00773196 0.0069806 0.00496011 0.0086739 0.00267718 0.00317126 0.00442536 0.00367355 0.00182543 -0.00423152 -0.00555481 0.00471935 0.00164157 -0.00178545 0.0062949 0.00569914 -0.00189532 0.00112371 0.00190134 -0.000223233 0.00335182 0.0060544 0.00650862 0.00747727 0.00878565 0.0075677 0.00882063 0.00391517 0.00268041 0.00175143 0.0040813 0.00199369 0.0106155 0.0021998 0.00744041 0.00722612 0.00600352 -0.0031087 0.0033636 -0.000797714 -0.000486438 -0.000175817 0.000107176 0.00294923 -0.00176247 -0.00985167 -0.00347378 0.000500717 0.00292623 0.00790798 0.00317099 0.00713737 0.00827987 -0.000383573 0.00646566 0.00521341 0.0102062 0.000722365 0.00115998 0.00611207 0.00948989 0.00467633 0.00602614 0.00248469 0.00108498 0.00634896 -0.00269686 0.00412114 -0.00335865 -0.00688007 -0.00726222 -0.00478098 -0.0120247 -0.00704079 -0.00866841 -0.00649692 -0.00191556 0.00158619 0.00499253 0.00690899 0.0021954 0.000992949 0.00786527 0.00226695 0.0042268 0.00979545 0.0103695 0.00906632 0.011222 0.005568 0.00134105 0.00762426 -0.00235623 -0.00134745 -0.00446218 -0.00170706 -0.00136851 -0.00686163 -0.00949731 -0.00345321 -0.00281588 -0.00175031 0.0011941 -0.00393901 0.00319512 0.00331563 -0.00017292 0.00285799 0.00310956 0.00270501 0.00812225 0.00668576 0.00278351 0.00371208 0.00640387 0.00228799 0.00453645 0.00491105 0.00263177 0.00485904 0.00397755 -0.00268351 4.59667e-05 0.00710686 0.00479204 -0.00285669 -0.00229547 -0.00741002 -0.000146139 0.000254527 -0.00351465 0.00049326 -0.00465519 0.000757538 0.00904399 0.00579507 0.00851587 0.00189602 0.00455787 0.00749634 0.00804124 0.00329923 0.00362013 0.0107382 0.00257503 0.00188937 0.00656339 -0.0037663 0.00212719 0.00677054 0.00131673 -0.000366249 0.00308345 4.665e-05 -0.00262078 -0.00534757 -0.00527901 -0.00420768 -0.00627784 -0.00590805 -0.00573371 0.00173353 0.00356381 0.00477175 0.0107777 0.00562749 0.00863878 0.00948786 0.00113402 0.00587629 0.0108647 0.00443738 0.00519967 -0.00134204 0.00498262 -0.00533043 -0.00310244 0.00315563 0.00531234 0.00471833 -0.00105709 0.00112061 -0.00341676 -0.00863696 -0.00626003 -0.00680585 -0.00639766 -0.00117205 -0.00664213 0.000890218 0.00925199 0.00675089 0.00500749 0.00453525 0.00191608 0.00131335 0.0043299 0.00889962 0.00629585 0.00500981 0.00201013 -0.00175584 -0.0017667 0.000959675 0.0039359 0.00480289 0.000293474 0.00105036 -0.00189218 0.00391667 0.00133427 -0.00638778 -0.00190353 -0.000684807 -0.00834664 -0.00389022 -0.00540514 0.00357258 0.000573416 0.00488199 0.000342708 0.00333455 0.0078256 0.00483606 0.00773196 0.00348878 0.0102009 0.00705356 0.00437876 0.00408192 -0.00580194 -0.00445621 0.00159492 -0.00450996 -0.00574464 -0.00533668 0.00207124 -0.00225402 -0.00694181 -0.00460745 0.00280108 -0.00517788 -0.00587047 -0.000889945 0.00186523 0.00190294 0.0038761 0.00165233 0.00164469 0.00583372 0.00950433 0.00639175 0.0057732 0.00247423 0.00259876 0.00868455 0.00474474 0.00263847 -0.0055246 -0.00435894 -0.00332697 -0.00342482 0.00307622 -0.00466314 -0.00214102 -0.00453332 -0.00144548 0.000454458 0.000714571 -0.000303238 -0.00304215 -0.0073671 -0.000663447 -0.00210981 0.00403782 0.00171439 0.00333226 0.00317064 0.00538544 0.00257732 0.00402062 0.00927835 0.00269203 0.0054381 0.00260407 0.00574341 -0.00407798 0.00225156 0.000447644 -0.00238392 -0.00294794 0.000460536 0.00624811 0.00118593 -0.00170388 -0.000157596 -0.00131576 0.00127039 0.00671045 -0.000173487 -0.00236268 -0.00371065 0.00449532 -0.000346141 0.00710162 0.00329623 0.000154717 0.00876289 0.00793814 0.00690722 0.00833871 0.003112 0.0045149 0.00248061 0.0084239 0.00537054 -0.00361566 -0.00217767 0.00306174 0.00345884 0.00633109 0.00303903 0.00554198 0.00253948 -0.000391826 0.00283919 -0.00423105 -0.00317741 -0.00321684 0.00414981 0.000192109 0.00921851 0.00453837 0.0085485 0.00259426 0.0102062 0.00938144 0.00948454 0.00827298 0.00691061 0.00989976 0.00754505 0.00677858 0.00502016 0.00980054 0.00809985 0.00886079 0.00609471 0.00138267 0.00759496 0.005122 0.0034363 0.00482054 -0.00295437 0.00120858 0.00103717 0.0106698 0.00761037 0.00487017 0.00280101 0.0105761 0.00241567 0.00142791 0.0085567 0.00247423 0.00938144 0.0100012 0.00896944 0.0095243 0.00824108 0.00789089 0.00807145 0.00675643 6.38059e-05 0.00780515 0.00794475 0.00989221 0.00417693 0.00308168 0.00167056 -0.00215504 -0.00377063 0.00656702 0.00244533 0.0106922 0.000409846 0.00615949 0.00201915 0.00356131 0.0101931 0.00802562 0.00814433 0.00350515 0.00680412 0.00845361 0.00536127 0.00334263 0.00684789 0.0073402 0.00665489 0.00245521 0.00484067 0.00205968 0.00529449 0.000820748 0.00910949 0.0054025 0.0105741 0.00445622 0.00141759 0.000969385 0.00393312 0.0032774 0.00916536 0.00214299 0.00126625 0.00602143 0.00195876 0.00309278 0.00525773 0.00175258 0.00175258 0.0071134 0.00412371 0.00958763 0.00442949 0.000197878 0.00755345 0.0041363 0.00533653 0.00141912 0.00939564 0.0066131 0.00880218 0.00130356 0.00407099 0.00152663 0.00626955 0.00479241 0.0102996 0.00667338 0.00888326 0.00423711 0.00216022 0.0014433 0.00268041 0.00360825 0.00680412 0.00876289 0.00845361 0.000309278 0.00597938 0.0071134 0.01 0.00742268 0.00701031 0.000927835 0.0014433 0.0014433 0.00649485 0.0061837 0.00113259 0.00876584 0.0074228 0.00824742 0.00505155 0.00340206 0.000412371 0.00649485 0.00494845 0.00618557 0.00525773 0.000103093 0.00309278 0.00742268 0.000412371 0.00989691 0.00505155 0.0102062 0.00690722 0.00618557 0.00969084 0.0027755 0.00977367 0.00272198 0.00975227 -9.23115e-05 0.00753443 0.00999855 0.00125256 0.0064397 0.00169515 0.00622127 0.00345141 0.00854223 0.00357958 0.00416646 0.00235767 0.00602368 0.0063871 0.00453608 0.00484536 0.00381443 0.000824742 0.00206186 0.00206186 0.00371134 0.00948454 0.00546392 0.00249461 0.00515687 0.000970295 0.00191601 0.00654505 0.00904109 0.00535785 0.00659201 0.00161814 -0.00201213 0.0043095 0.00177211 0.00805416 0.00799582 0.000563471 0.00192797 0.00141175 0.00912894 0.000800556 0.00165032 0.0078374 0.00536082 0.00546392 0.00216495 0.00896907 0.00505206 0.000824834 0.00346296 0.00756705 0.00243138 0.00942899 0.00113955 -0.00127506 0.00332692 0.00198527 -0.00121726 -0.00283859 0.00445691 -0.00182524 0.00392995 0.0042644 1.67772e-05 0.00938315 0.00117788 0.0033311 0.00674373 0.00450303 0.00881811 0.00438942 0.00145032 0.00907216 0.00175258 0.00113402 0.00525885 0.00876792 0.00334025 0.00172534 0.00338133 0.00146014 0.0110442 0.00955442 0.0047277 0.00732825 -0.00143487 -0.000139387 0.00306241 -0.000996659 -0.00150351 -0.00392327 -0.00328123 0.00074839 -0.000125407 0.00100503 0.0108566 0.00549018 0.00372341 0.00818431 0.00997255 0.00958278 0.00773196 0.00536082 0.00937917 0.00378668 0.00824545 0.0127349 0.0129954 0.0134156 0.00485377 0.00957315 0.00602536 0.00540435 0.00435461 -9.71661e-05 -0.00575097 -0.0103347 -0.00467695 -0.00920548 -0.00583007 -0.00640243 -0.000162385 0.00375932 0.00629881 0.00744098 0.00274168 0.00347819 0.00502385 0.00246707 0.00721649 0.0043299 0.0023276 0.00796058 0.00605655 0.0137257 0.00753004 0.00949281 0.00189773 -0.000940276 -0.005929 -0.00883271 -0.007608 -0.00907775 -0.00620767 -0.0085768 -0.0108855 -0.0061468 -0.0104224 0.000589358 -0.0051115 0.00263351 0.000275499 0.00247095 0.00837321 0.00962103 0.00681798 0.00793431 0.00701031 0.00632147 0.00959983 0.00375011 0.00662975 0.0122218 0.00216525 0.00173496 -0.00580201 -0.000806952 -0.00960725 -0.000227867 -0.00136084 0.00284659 -0.0131119 -0.0133903 -0.00773742 -0.00382318 -0.0019241 -0.0101466 -0.00345026 -0.00555568 -0.00302928 0.00182939 0.00134606 0.00669773 0.00754119 0.00814053 0.00596548 0.00467443 0.00577615 0.00735499 0.0157883 0.00907884 -0.00133752 -0.000713303 -0.00477336 -0.0046305 0.00425703 0.0106563 0.0111553 0.0077937 -0.00346474 -0.00732993 -0.0100752 -0.0094428 -0.0109619 -0.00391321 0.000612026 -0.000810462 0.00630944 0.00420005 0.0006058 0.00264345 0.00486586 0.00865577 0.00216495 0.00877398 0.0111033 0.00468403 0.0176546 0.00581077 -0.00168851 6.98872e-05 -0.00301695 -0.00469129 -0.00179232 0.0113783 0.0112161 0.00889057 0.00655589 0.0046512 -0.00716596 -0.00154457 -0.0015939 0.000772337 0.000856269 0.000901601 0.00459213 0.00743638 0.00108302 0.00771494 0.00224152 0.00383125 0.000927835 0.00122126 0.00457899 0.0113167 0.0163415 0.0142923 -0.00141222 0.00127881 -0.00259517 0.00218866 0.00278684 0.0071521 0.000490884 -0.00675754 -0.00192177 -0.00507289 -0.00366912 -0.00822398 -0.00559893 0.000532292 0.00291153 0.000361139 0.00122412 0.00255807 0.00864395 0.00784945 0.00629013 0.00869245 0.000103093 0.00463574 0.00671616 0.0081297 0.0083748 0.0142061 0.00595874 -0.0103711 -0.00130091 -0.00168034 0.00239315 0.00343514 -0.000499618 -0.00548413 -0.0035123 -0.00101274 -0.0102365 -0.0130378 -0.0100396 -0.0097508 -0.00620715 -0.00252525 0.00691583 0.00385789 0.0083289 0.00867636 0.00943817 0.00949678 0.00690722 0.00634709 0.00668281 0.00717709 0.00666613 0.00566555 -9.99604e-05 0.00132352 -0.00327374 -0.00116324 -0.00344694 -0.00685983 -0.00768288 -0.000483006 0.00791361 0.00413838 -0.00175797 -0.00818103 -0.00148199 -0.00921831 -0.00515088 -0.0058159 0.000557435 0.00854561 0.0104036 0.000987123 0.00683071 0.00138062 0.00948454 0.00829468 0.00647521 -0.00158025 0.00716453 0.0017162 0.00305271 -0.00610191 0.000918618 0.00171738 0.00417228 -0.00740411 0.00118953 -0.00114394 0.00489635 0.00571377 0.000408632 -0.00774872 -0.0100776 -0.00253966 -0.00623697 -0.000820234 0.00332029 0.00598505 0.00612735 0.0062947 0.00197503 0.00873083 0.00484536 0.000635888 0.00861669 0.0083002 0.00495505 0.00553625 0.000565217 -0.00402505 -0.000493905 0.0035215 -0.00251329 -0.00219507 -0.00237633 -0.00627823 -0.00666905 -0.00166061 -0.000990686 -0.00244694 -0.00279535 -0.00144476 0.000378074 -0.00200799 0.00313119 0.0033903 0.00654238 0.00267908 0.00457151 0.00536082 0.00597938 0.00344164 0.00907101 0.0040786 0.00297169 0.000369031 -0.00225372 -0.00702096 -0.00607823 -0.00475166 -0.00235617 -0.00355155 -0.00444464 0.0012383 -0.00395371 -0.00395527 -0.000858322 0.00789113 0.00938176 0.0117149 0.00844044 0.0131045 0.0127532 0.00963757 0.00601697 0.00716796 0.00271635 0.00576772 0.00639175 0.00682435 0.00549667 0.0030894 -0.0018549 0.000326275 0.00245004 -0.00318795 0.00217954 4.57078e-05 -0.00774505 -0.00618294 -0.00879476 -0.00406592 -0.00804635 -0.00455163 -0.0103447 -0.00712737 0.00423267 0.0139246 0.0104872 0.0173676 0.00706446 0.00159672 0.00250065 0.00918436 0.00609016 0.0092796 0.00453608 0.00846016 0.00146499 0.00265013 0.00407274 0.00408989 0.00108142 0.00228627 0.00128476 -0.00399624 -0.0138121 -0.00893854 -0.0127432 -0.0124448 -0.0076843 -0.00927168 -0.00488326 -0.00851453 -0.0070992 0.00802471 0.016947 0.0236396 0.0155875 0.00887138 0.00323404 0.00378802 0.00376043 0.00255995 0.00608247 0.00154639 0.000343479 0.00977347 -0.00292416 -0.00201357 0.0010926 -0.00606324 -0.00461638 -0.00581945 -0.0160633 -0.0122896 -0.00135443 -0.0100551 -0.0102316 -0.0137611 -0.00782816 -0.00150988 -0.00651509 0.000598529 0.0142904 0.0205527 0.0115191 0.011033 0.000993317 0.00268395 0.00307623 0.00399247 0.00865979 0.000618053 0.00892669 0.0080987 0.0015751 -0.000374226 0.0034149 -0.00402479 0.000631724 -0.010462 -0.013359 -0.00261961 -0.00844435 0.000761071 -0.00510164 -0.00334433 -0.0059261 -0.000298113 0.00236257 0.00753259 0.0116962 0.0055198 0.010018 0.000622093 0.00538026 0.00910828 0.00898851 0.00205421 0.00896907 0.00337161 0.00609414 0.00309695 0.00742944 0.00645867 0.000800767 0.00170741 -0.00420489 -0.0117612 -0.00940767 -0.00457636 -0.00950384 0.00298575 -0.00138926 0.00175571 0.0076903 0.0102799 0.00277811 4.78262e-05 0.00502715 0.00957581 0.00087478 0.00637445 0.00455331 0.00578487 0.00324305 0.00123711 0.000309278 0.00639175 0.00851505 0.00862368 0.00319906 0.00161964 -0.00113692 -0.00140532 -0.0118121 -0.0144334 -0.0127105 -0.00736045 -0.00643357 -0.00501096 -0.00483024 0.0021217 0.00446318 0.00543797 0.000151989 0.00520688 0.00788014 0.00188577 0.00129033 -0.0010508 0.00711148 0.00164362 0.00326155 0.00783505 0.00835052 0.00298969 0.00695072 0.00487084 0.00474801 0.00389565 -0.00141286 0.00231444 -0.00488474 -0.00936678 -0.0105465 -0.0107507 -0.0108669 -0.00274731 -0.00385389 -0.0024793 0.00740911 0.00937065 0.00579817 0.00248844 0.00467071 0.00512592 -0.00121122 0.00301999 0.00689965 0.00438664 0.00941162 0.00680412 0.00257732 0.000618557 0.00758826 0.00355442 0.00175559 0.0102342 0.00800698 0.00130509 -0.00252339 -0.00063665 -0.00307541 -0.00744219 -0.00463136 -0.00275528 0.000811751 -0.00332675 -0.000143246 0.0110851 0.0115863 0.0112324 0.00693533 -0.00248149 0.00360273 0.000731315 0.00752164 0.00147418 0.00309584 0.00484536 0.00546392 0.00391753 0.0100896 0.00942389 0.000863503 0.0107843 0.00746852 0.0127987 0.0110746 0.00694205 0.00443985 0.00225138 -0.000479074 -0.00203701 -0.00221386 -0.000119662 0.00406424 0.0121489 0.00573294 0.00323706 0.00160615 0.00417412 0.00616322 -0.000481157 0.00680514 0.00583392 0.010094 0.00804124 0.000927835 0.00690722 0.008346 0.0088788 0.00260681 0.00442649 0.00652491 0.00550634 0.0065239 0.00103005 0.00887601 0.0113073 0.00530086 0.00610367 0.00342272 0.0107574 0.0080048 0.0138448 0.00663293 0.00539551 0.00108855 0.00077839 0.00410952 0.000217998 0.00163358 0.00308516 0.000403247 0.00113402 0.00154639 0.00134021 0.00824742 0.000721284 0.00994076 0.00206 0.0050215 0.00256896 0.000886963 0.00290582 0.00430213 0.0036451 0.00135445 0.0093785 0.0102442 0.00369177 0.00212353 0.0104609 0.00651026 0.00915027 0.00746035 0.00710421 0.00564071 0.00391508 0.00628959 0.00494845 0.00123711 0.000721649 0.00731959 0.00164948 0.00793814 0.00680412 0.000515464 0.00990479 0.00816266 0.00322036 0.00872837 0.00789993 0.000195466 0.0104131 0.00822239 0.0102352 0.00482346 0.000377111 0.00903011 0.00351171 0.00513614 2.11222e-05 0.00783795 0.00364756 0.00548068 0.00792559 0.00247423 0.00515464 0.00680412 0.0101031 0.0043299 0.00814433 0.00938144 0.00670103 0.00597938 0.00608247 0.00979381 0.00237113 0.00948454 0.00835052 0.00639175 0.00639175 0.00515277 0.00402304 0.0065021 0.000103395 0.00618557 0.00185567 0.00752577 0.00340206 0.00649485 0.00618557 0.01 0.0101031 0.000824742 0.00639175 0.00958763 0.00948454 0.00783505 0.00773196 0.00484536 0.00443299 0.00412371 0.00824723 0.00379495 0.00377246 0.00828518 0.00348091 0.00428548 0.000902496 0.00457882 0.00470606 0.00438085 0.00150699 0.00797299 0.00880972 0.00534515 -0.000205461 0.00326707 0.00444523 0.00728522 0.00576895 0.00381443 0.00381443 0.00597938 0.0085567 0.000309278 0.00494845 0.00391753 0.0014433 0.00154639 0.00843627 0.0014579 0.00384964 0.00645343 0.0026211 0.00517564 0.000476778 0.000894057 0.00077556 0.0058713 -0.000125622 0.00486803 0.0083421 0.0086212 -1.60392e-05 0.00243194 0.00823789 0.0032763 0.0085188 3.91033e-06 0.0039228 0.00484536 0.000824742 0.00360825 0.00773196 0.00773039 0.00103091 0.00741 0.00601121 0.00681321 0.0026185 0.00303849 0.00590908 0.00426425 0.00731307 0.00449207 0.00791382 -0.0010185 -7.73242e-05 0.0049142 0.00474391 0.000859064 0.00339943 -0.000108914 0.00638533 0.0102705 0.00740157 0.00482049 0.00458894 0.000520373 0.00886598 0.0043299 0.000103093 0.00556069 0.00927675 0.00543177 0.00472811 0.00232292 0.00182449 0.00283566 0.00184304 0.0064306 0.00481921 0.00186156 0.00217806 0.0058536 0.00511621 0.00505255 -0.00262318 0.00554322 0.00848558 0.00183427 0.00698332 0.00410397 0.00268476 0.00845203 0.00713664 0.00892402 0.0032935 0.00371134 0.00185567 0.00257296 0.00252846 -8.95313e-05 0.0039501 0.00198155 0.00593222 0.00412866 -1.02425e-05 0.00128156 -0.00156366 -0.00215808 0.00284927 0.000915191 0.00181458 -0.00436243 -0.00455423 -0.00322303 0.00438348 0.002518 0.000327563 0.0101854 0.00129069 0.00677473 0.00205096 0.00802244 0.00442491 0.0102062 0.00917526 0.00856973 0.005793 0.00182319 0.00673641 0.000887105 -0.0014491 0.00800239 -0.00247915 -0.00111365 0.000374332 -0.0028049 -0.00412836 -0.00713402 -0.00766661 -0.00121305 0.000597338 -0.00595792 -0.00382965 -0.0012169 0.00429096 0.00307748 0.00291566 0.00086706 0.00149658 0.00701263 0.00801548 0.00721649 0.00308546 0.00449342 0.00400132 -0.000693793 0.0036799 0.00549746 0.0081276 -0.00231085 -0.00117143 -0.000916482 0.00348548 -0.0060576 -0.00285993 -0.00117001 -0.0094059 -0.00753333 -0.000328847 -0.00609347 -2.12163e-05 -0.00254006 0.00260831 0.00599254 0.000523735 0.00184529 0.00128668 0.0017223 0.0101889 0.00205484 0.00477373 0.00991283 0.00505538 0.00352425 0.00534991 0.00476717 -0.00130957 0.00338785 -0.00461277 -0.00496454 -0.00610258 0.00238919 -0.00668642 -0.00412216 -0.0076455 -0.00287998 -0.0029096 -0.00415787 0.00299319 0.0015939 0.00680514 0.0075182 0.00408604 0.0042255 0.00358879 0.00132355 0.00227069 0.00113402 0.00920408 0.000740594 0.00544641 0.00704824 0.0083988 -0.000321836 -0.0015744 0.00126659 0.000428214 -0.00509146 -0.00456272 0.00310701 -0.00208391 -0.00322517 -0.00502612 0.00152667 0.000984631 0.00382229 -0.00418469 0.000674477 0.00639192 0.00110254 0.00136063 0.0104492 0.0101505 0.0103151 0.00539632 0.00360825 0.00489529 0.00594298 0.00176088 0.00106859 0.00523935 0.00164381 0.00267701 0.00270445 -0.00293929 -0.00687704 0.000819854 -0.00310185 5.80243e-05 0.00224665 -0.00335304 -0.00184966 -0.00233366 -0.00473697 -0.00469933 0.00174374 0.00455894 0.00209209 0.0043093 0.00228447 0.00750858 0.003106 0.00733906 0.01 0.00309312 0.00776299 0.00627254 0.00889828 0.000455374 -0.000207764 0.00335322 0.00401256 -0.00393581 -0.00192981 0.00334716 -0.000677092 -0.00439719 -0.00340187 -0.000505651 -0.00816609 -0.0100127 0.000606382 0.00228301 -0.00526887 -0.00440863 0.00064876 -0.00103919 0.00250753 0.00984125 0.00423059 0.00207463 0.00608247 0.000774385 0.000680477 0.00906025 0.00542218 2.54085e-05 -0.00506853 -0.00552951 0.00188915 -0.00565313 -0.00607805 -0.000620065 0.0012604 0.000737019 -0.0037335 -0.00379923 -0.0104037 -0.00398377 -0.00383567 0.00152634 0.00253461 0.00396998 -0.000622242 0.00497917 0.00288849 0.00953566 0.00732224 0.000427322 0.00463918 0.00155546 0.000957594 0.00120496 0.00113858 0.00491139 -0.00528701 -0.00743794 -0.00300099 -0.00168807 0.000670427 -0.00206099 -0.00304583 -0.0054979 -0.00394394 -0.00708948 -0.00550256 -0.00368469 -0.00381841 -0.000170156 -0.00302848 0.0015161 0.00120704 -0.000716876 -0.000655148 0.0001682 0.00786896 0.00855741 0.00608247 0.00102752 0.00122398 0.00283373 -5.64738e-05 0.00307642 -0.00541826 -0.00189661 -0.00399069 0.000486944 -0.00476137 -0.00755612 -0.00913051 -0.00165242 -0.00343638 -0.00692378 -0.012286 -0.00577641 -0.00818854 0.000843247 -0.00158307 0.000230732 0.00129799 0.0055335 0.000170279 0.00147009 0.000746542 0.00103101 0.00917526 0.00669324 0.00483172 0.00497245 0.00826974 0.00145357 -0.00263432 -0.000101545 -0.00161735 -0.00849256 -8.99327e-05 -0.0040218 -0.00831293 -0.0106454 -0.00995923 -0.00322487 -0.00367671 -0.00174861 0.00211034 -0.00336763 0.00340989 -0.00220521 0.0032546 0.00412699 0.00624205 0.00789847 0.00927305 0.0048611 0.00958763 0.00226428 0.00401168 0.00762661 0.0028989 -0.0030501 0.000553481 -0.00438971 -3.7135e-05 -0.00288712 -0.00177139 -0.00123826 -0.0022942 -0.000986365 0.00232478 -0.000979018 -0.00519868 0.00364298 -0.00503351 -0.000628737 -0.00327953 0.00129568 0.00654591 0.00290369 0.00789746 0.00873647 0.000414054 0.00395329 0.00494845 0.00659666 0.00947955 0.00536405 -0.000729783 0.000600392 0.00229062 -0.00214757 -0.00207935 -0.00401568 -0.00389023 0.000188686 0.00028329 -0.0038352 0.00482443 -0.00142794 0.000479632 0.00380646 -0.00199004 0.000336835 -0.00123691 0.00255847 0.00440674 0.00595583 0.00348966 0.00112577 0.00200019 0.00351383 0.00154639 0.000927835 0.00259035 0.00251285 -0.000707406 0.00042352 0.00352937 0.000779635 -0.00607063 -0.00477039 -0.00481203 -0.00550677 -0.00313028 0.00187819 0.00560799 -0.00341124 -0.00107322 -0.000860335 0.00312669 -0.00516322 0.00239891 -0.00362229 -0.000384245 0.00624549 0.00706596 0.00659898 0.00334647 0.00764483 0.00556701 0.0044368 0.00657945 0.000801753 0.00192478 0.00155066 0.00305566 0.00332862 0.00301195 -0.00524201 0.0029236 -0.000771244 0.00215294 -0.00545848 -0.00051679 -0.00579024 -0.00376922 0.00249786 -0.00661394 -0.00727852 0.00387205 0.00499316 0.00263573 0.00233985 0.00531096 0.00295351 0.00488075 0.00825391 0.00515464 0.00875043 0.00345342 0.00702231 0.00468504 -0.00180636 0.00461962 -0.00388232 -0.00289323 0.000284388 -0.00360475 -0.000875652 0.00129872 -0.00101142 -0.00466095 -0.00950082 -0.00209692 0.0010662 -0.00666167 -0.00019338 0.00202422 -0.00405171 0.003005 0.00196974 0.00423979 0.00817804 0.00678299 0.00484536 0.00608247 0.00701031 0.000419635 0.00660327 0.00541111 -0.000817169 -0.00150524 -0.00210756 -0.00458142 -0.00222696 -0.000675883 0.00215486 -0.000476934 -0.002515 -0.00437191 -0.00804115 -0.00175036 -0.00687927 -0.00286461 -0.000446834 0.00104547 0.00667891 0.000813294 0.00969417 0.00203702 0.000421158 0.000341795 0.00494845 0.00670103 0.00216495 0.0100921 0.000397995 0.00329421 0.00743943 0.00488646 0.0011211 -0.00276458 0.00410217 -0.00211046 -0.0051811 -0.000938145 -0.000366892 -0.0017861 -0.00409924 -0.00198992 0.00372746 -0.00102828 0.00704126 -0.000930867 0.0011818 0.000749348 0.00496859 0.00418141 0.00503519 0.000843067 0.00546392 0.00742268 0.00257732 0.00926976 0.00893195 0.00779468 -0.0011805 7.65279e-05 0.00062188 0.00640241 -0.00330026 -0.00255739 -0.00416034 0.000506468 -0.0031676 -0.0030413 0.000693113 0.00164636 -0.000353913 0.000719297 0.00134339 -0.00112589 0.0073507 0.00147399 0.00042444 0.00649934 0.0022013 0.00587282 0.00474227 0.00536082 0.00773196 0.00249639 -0.000491972 0.0028943 0.00549493 0.00859275 0.00582646 0.00814504 0.00709576 -0.000978977 0.00627704 0.00455313 0.00216224 0.0016813 0.00559649 0.00606584 0.00509796 0.00728418 0.00369686 0.00638564 0.00813683 0.00109485 0.00054635 0.00145865 0.00187601 0.00949138 0.00752577 0.00268041 0.00835052 0.00473849 0.00134599 0.00583247 0.0053099 0.00605841 0.00643398 0.0040266 -0.00118093 0.00529167 0.00376236 0.00550247 0.000160231 -0.00160847 0.00952349 0.00367388 0.00440546 0.00444161 0.00576931 0.00662343 0.000935245 0.00568032 0.00827264 0.00795226 0.000316002 0.000420416 0.000515464 0.00742268 0.000103093 0.00896907 0.0082472 0.00984147 0.0080513 0.00168693 0.00328761 0.00846856 0.00212019 0.0069389 0.00106867 0.00380003 0.0013505 0.00398876 0.0012381 0.00358739 0.00195383 0.00301529 0.00741167 0.00607985 0.00406821 0.00706371 0.007004 0.00267823 0.00546392 0.00659794 0.000412371 0.00907216 0.00556701 0.00762887 0.00237113 0.000309278 0.00248122 0.000744438 0.00883297 0.00623807 0.00524621 0.00329175 0.00593835 0.00758706 0.00180512 0.00168496 0.00346493 0.00633033 0.00278165 0.00876379 0.00686002 0.00916567 0.00900856 0.00535019 0.00704126 0.00237113 0.0014433 0.00402062 0.00494845 0.00907216 0.00731959 0.00319588 0.0057732 0.00783505 0.00969072 0.00360825 0.0102062 0.00463918 0.0042268 0.00525773 0.00484536 0.00454328 0.000840939 0.00360873 0.00608249 0.000927835 0.00690722 0.00154639 0.0057732 0.00587629 0.00989691 0.01 0.00123711 0.00701031 0.00381443 0.00731959 0.00402062 0.00731959 0.0101031 0.00731959 0.00453608 0.00845361 0.00762939 0.0100859 0.00140367 0.00720637 0.0057307 0.00821947 0.00466478 0.00515297 0.000697394 0.0063303 0.00181889 0.00065057 0.0101392 0.00010908 0.00515339 0.00144118 0.00968122 0.00150846 0.000222532 0.0042268 0 0.00340206 0.00350515 0.0102062 0.000103093 0.00886598 0.00350515 0.00350515 0.00808319 0.00878805 0.00655851 0.00280671 0.0113436 0.00247819 0.00237472 0.00442316 0.00743149 0.0108272 0.00303061 0.0108702 0.00399948 0.00126275 0.00561141 0.00826687 0.0091253 0.00181262 0.00139934 0.00185482 0.00535621 0.00742268 0.00670103 0.00680412 0.0042268 0.00442686 0.000308168 0.00448092 0.00925633 0.0090142 0.00171781 0.00566674 0.00781564 0.00789196 0.00332221 0.00694038 0.0106737 0.00206357 0.00468269 0.00830817 0.0103536 0.0107415 0.00736327 0.00473797 0.00878078 0.000877977 0.007639 0.00986455 0.0033007 0.00701489 0.00546392 0.00814433 0.00783505 0.00575291 0.00339537 0.00982386 0.00225111 0.0088434 0.00732297 0.00141723 0.0100639 0.00829569 0.0051951 0.00365426 0.00749639 0.00784535 0.000501593 0.000701106 0.00022804 0.000239001 0.00384096 0.00384682 0.00412738 0.000636308 0.00948576 0.00746588 0.000164609 0.00833425 0.00258359 0.00268041 0.00824742 0.00391731 0.00857962 0.00730946 0.000503646 0.000391738 0.00879087 0.00241131 0.00298787 0.00351909 0.0054318 0.00792624 0.00237197 0.00450305 0.00266424 0.00111452 0.0024635 -0.00075973 0.00360348 0.00236926 0.00190484 0.00598783 0.0029502 0.00909365 0.00536061 0.000863539 0.00506081 0.00515464 0.00938144 0.00595875 0.00976717 0.00363075 0.0024193 0.00096262 0.00130394 0.00176825 -0.00236676 0.00149382 0.00282325 0.00238583 -0.00225341 -0.00207209 -0.00558288 -0.00497509 -0.00342842 -0.0070815 -0.00801511 -0.0044874 -0.00129595 0.00505789 -0.000872972 0.00823056 0.00477612 0.00806686 0.00157209 0.00835052 0.00543971 0.00882224 0.000298214 0.00541367 0.0019027 0.00491182 0.000916837 -0.00068537 0.00231302 0.00278425 -0.00708887 -0.00380229 -0.00294158 -0.00829603 -0.00832588 -0.00820975 -0.00719671 -0.00861503 -0.00786528 -0.00738283 0.000619761 0.00240289 0.00129266 0.00636298 0.00905194 0.00526101 0.00857254 0.00246345 0.000557579 0.00642179 0.000279512 0.00864039 0.00339733 0.00427289 -0.00242457 0.00658191 0.000641535 -0.00761963 -0.00517091 -0.00447272 -0.00368326 -0.0113882 -0.0111957 -0.00554758 -0.00742816 -0.00611677 -0.00344628 -0.00420944 0.001455 0.00533643 0.00285775 0.00392988 0.00881417 0.00985179 0.0101031 0.00793814 0.0066356 0.00844402 0.00326992 0.00628517 0.00120853 -0.00212215 0.0035418 0.00571715 0.000170574 0.000153364 -0.000687694 0.00141066 -0.00153684 -0.00214046 -0.00533573 -0.00647253 -0.00723063 -0.0100976 -0.00254215 -0.00278156 -0.00144126 0.000993896 -0.000325461 0.00166789 0.0100402 0.00297863 0.00892337 0.000309278 0.00461267 0.00248427 0.00324888 0.00550388 0.00600604 -0.00110864 0.005635 0.00413949 0.00098283 0.00352124 0.00115474 0.000559939 -0.0032117 -0.00180286 -0.00524762 -0.00362362 -0.00249483 -0.004045 -0.00138216 -0.00336829 -0.00423768 0.000819162 0.00637749 0.00182819 0.000442208 0.000560194 0.0063118 0.00948454 0.00031142 0.00951249 0.00925036 0.00102533 0.00632056 0.0018768 -0.00137838 0.000797493 -0.00175692 0.00090234 -0.00155801 -0.00314897 -0.00699956 -0.00509524 -0.00675586 -0.00514129 -0.00682001 -0.0053077 -0.00112411 -0.00034035 -0.00260549 -0.00226178 0.00243593 0.00433139 0.00552689 0.00579828 0.000215039 0.00371134 0.00375451 0.00151288 0.00437238 0.00920098 0.00676204 0.00237547 0.00423822 0.0033679 -0.00135096 -0.00758985 0.000269249 -0.00161987 -0.00382279 0.00109716 0.00288992 -0.00351889 -0.000318372 -0.00288272 -0.0011355 0.00249167 0.00517854 -0.00189466 0.00358141 0.00328134 0.00145746 0.00553099 0.00619886 0.00989691 0.0095972 0.0025718 0.0071167 4.07559e-05 -0.00253267 -0.00190735 -0.00561373 0.0012106 -0.000772006 -0.00636265 -0.00780209 -0.00889615 0.00118522 0.00152552 -0.0064473 -0.00702441 -0.00632535 -0.00620429 0.0015875 0.00422168 -0.00451432 0.00501085 -0.00139684 0.00492979 0.00573099 0.00105599 0.00391481 0.00865979 0.00565992 0.00232125 0.00258732 0.00553734 -0.00135457 -0.00252874 0.00204615 -0.000274305 -0.00148051 0.000597622 -0.00365081 -0.0106933 -0.00942149 -0.000200886 -0.00464164 -0.00574819 -0.00423462 -0.00391759 -0.000842999 0.00298336 -0.000348213 0.00107235 0.00121994 0.00685785 0.0064451 7.61538e-05 0.00597952 0.00185567 0.00255407 0.00277692 0.0059353 0.00218652 -0.000408194 -0.00328771 -0.00106988 -0.00319865 -0.00213638 -0.00391131 -0.000771183 -0.00926412 -0.00309545 -0.00443605 -0.00398753 -0.00575285 0.00229116 -0.00622508 -0.00326054 -0.00515795 -0.00450371 3.17694e-05 0.00676083 0.00933661 0.00143368 0.00859851 0.00669078 0.000412371 0.00710109 0.00246507 0.00405507 0.00282773 0.00125613 -0.00338052 -0.00676256 -0.00238411 -0.00349116 -0.00462471 0.000271648 0.00028497 -0.00565661 0.00252959 -0.00031138 -0.000784662 -0.00365042 -0.00126115 -0.00521094 0.000310458 -0.00371441 0.000792095 -0.00146441 0.00433149 0.0105606 0.00957901 0.00719243 0.00463918 0.00741881 0.00522152 0.0021009 0.00208936 -0.00465844 0.000414881 -0.00382109 -0.0062651 0.00160976 -0.00168373 0.00295317 -0.000749928 0.00197747 -0.000928534 -0.00647834 -0.00262045 -0.00223644 -0.00285851 -0.0011241 0.000185607 -0.00492233 0.00309191 0.00462383 0.00868265 0.00613887 0.00188357 0.00307616 0.000309278 0.00773196 0.00917443 0.00173183 0.00285226 0.00267313 -0.00405415 -0.000434716 -0.00102202 -0.000254273 0.00295669 0.00221926 0.000815764 -0.00369373 0.00277454 -0.00249852 -0.00399511 0.00261979 -0.00107499 -0.00285416 -0.00158757 -8.38217e-05 2.34103e-05 -0.000668752 0.00507555 0.00269433 0.00618526 0.00628472 0.00721649 0.00854913 0.000515403 0.00346949 0.00164146 0.00356482 0.00163658 -0.00525557 -0.00450328 -0.00554732 -3.72763e-05 0.000112419 -0.00236486 -0.0015891 -0.00224433 -0.00165623 -0.00284638 -0.00380917 -0.00486637 -0.00522151 0.00451114 0.00356897 -0.00174467 0.000651592 0.0056958 0.00591544 0.00484451 0.00814118 0.00783505 0.00770211 0.00832355 0.00124599 0.00103529 0.00486328 0.00187442 -0.00159902 -0.00135022 -0.00663633 -0.00345147 -0.00726089 -0.00661284 0.00241607 -0.00751388 -0.00538586 0.000909412 -0.00162898 -0.00690963 -0.00169956 -0.000396904 -0.00412339 -0.0022051 0.00817638 0.000560483 0.00994896 0.00344518 0.00742268 0.00536082 0.00804124 0.00123925 0.00494585 0.00285027 0.00325734 -0.00138909 -0.00177601 -0.00978026 -0.00438511 -0.00892324 -0.000653095 -0.00828043 -0.00491849 -0.0051757 -0.00557423 -0.00194005 -0.00326173 -0.000716064 -0.00226917 -0.00322335 -0.00125529 0.00488399 0.00326042 0.0096023 0.00976301 0.00514766 0.00907216 0.00948454 0.00453608 0.0102022 0.0071927 0.00864141 0.00181951 0.000653886 0.00208418 -0.00542111 -0.00476098 -0.00633864 -0.0041792 -0.000302604 -0.00701617 -0.00478092 -0.00199885 0.00283321 0.000116002 -0.0023711 -0.00434637 0.00156672 6.17049e-05 2.73775e-05 0.0062336 0.00319934 0.00487493 0.000914147 0.00876289 0.00938144 0.00762887 0.00882646 0.00202198 0.00113438 -0.000966451 0.00552767 0.00549277 0.00276103 0.00287585 -0.00605912 -0.00966811 0.00174941 -0.000620986 -0.00289213 -0.00288052 -0.000741751 -0.00301407 0.00479252 -0.00322459 0.00019241 -0.00141153 0.00406742 0.00611326 0.00654129 0.00358924 0.00997968 0.00886598 0.00556701 0.00927835 0.00579529 0.0100379 0.00630075 0.00278185 -0.000117 0.00321407 0.00368371 -0.0024939 0.00107978 0.00693797 0.00383783 0.00181365 0.00478262 0.00279271 0.00653945 0.00321021 0.0040022 -0.000119415 0.00707666 0.00338773 0.00218281 0.00698428 0.00935042 0.00722583 0.00309556 0.00381443 0.00443299 0.00226804 0.00587508 0.0061892 0.00221406 0.000648128 0.00646816 0.00413664 0.00138676 0.00685048 0.00339074 0.0083783 0.0101228 0.00241313 0.000823786 0.00390082 0.00851206 0.00690333 0.0103565 0.00315549 0.00633037 -0.000129329 0.00706957 0.0101385 0.000661491 0.00938454 0.00948824 0.00453608 0.00443299 0.00701031 0.00865979 0.000412476 0.00381148 0.00383237 0.0034384 0.00828293 0.0093146 0.00910387 0.00189758 0.00587695 0.00369028 0.00832093 0.00874004 0.00776364 0.00568889 0.00450572 0.00386371 0.00691724 0.0059358 0.00147521 0.0032655 0.00516641 0.00928122 0.00360825 0 0.00505155 0.00948454 0.00917526 0.00907216 0.0057732 0.00886598 0.00206738 0.00310922 0.00618678 0.000638379 0.00789799 0.0083228 0.00433585 0.00645761 0.00574263 0.00876668 0.01006 0.00925965 0.00748917 0.000658056 0.00174301 0.0029337 0.00569233 0.00293271 0.00217813 0.00865979 0.000103093 0.00360825 0.00886598 0.00731959 0.00237113 0.00494845 0.00896907 0.0056701 0.00670103 0.00896907 0.00886598 0.000721649 0.00927835 0.00340206 0.00319588 0.00173867 0.00636089 0.0031954 0.0083505 0.00134021 0.00948454 0.00185567 0.0057732 0.00298969 0 0.00268041 0.00175258 0.00701031 0.00453608 0.00618557 0.00608247 0.00505155 0.000824742 0.0042268 0.00525773 0.00649485 0.00886494 0.00679548 0.0078963 0.00207764 0.00114909 0.00623569 0.00332824 0.00868147 0.00246754 0.00407247 0.00194375 0.000523198 0.00769329 0.00683603 0.00913811 0.00158871 0.0062224 0.00387307 0.00440345 0.00268041 0.00587629 0.00670103 0.000309278 0.00123711 0.00525773 0.00948454 0.00742268 0.00969072 -0.000881718 0.00348027 0.00536063 0.00531169 0.00737619 0.000327352 0.00528677 -0.00178405 -0.000496163 -0.000960495 0.00541617 0.00325149 0.0028597 -7.4146e-05 0.0072737 0.00445987 0.00107203 0.00623685 0.00598345 0.00489663 0.00406145 0.00226804 0.00453608 0.00247423 0.0102062 0.00165431 0.00278473 0.0019038 0.00480482 0.00484434 -5.63547e-05 0.000142329 0.00572309 0.00614496 0.00452526 -0.00634369 -0.000124902 -0.00019981 0.00130117 0.000100488 -0.0035805 -0.00136685 -0.00401024 0.00795368 0.00150207 0.00473731 0.00910768 0.00932558 0.00617676 0.00475291 0.00226804 0.0057732 0.00958763 0.0043436 0.00711802 0.00228222 0.00140531 0.00275142 0.00602222 0.000423144 0.007949 0.00172098 0.00471767 0.00157771 0.000816586 0.00819283 0.00578254 0.00752425 0.00706576 0.00410037 0.000442005 0.00236064 0.00496474 0.00172425 0.00382334 0.00945547 0.00177899 0.00857513 0.000998304 0.00103093 0.000721649 0.0101977 0.00292544 0.00400306 -0.00421784 0.00447666 0.00267037 -0.000199231 -0.000886552 -0.00719276 0.000190625 0.00254817 -0.00306601 0.00671592 0.0133243 0.0014271 0.00533304 0.0123406 0.00909206 0.00532031 0.00649535 0.00732402 0.00213801 0.00420125 0.00678904 0.00323994 0.00892086 0.00587629 0.00350515 0.00804696 0.00541111 0.00806519 0.000520801 -0.000560491 0.000212821 0.00692611 -0.00245625 -0.000543578 0.00303469 0.00775008 0.00477124 0.00894908 -0.000862048 -0.000706229 -0.00295621 -0.0114001 0.00334657 0.00467656 -0.00634778 6.25e-06 0.00558058 0.00821246 0.00304812 -0.000926386 0.00637638 0.00515464 0.00113711 0.00373294 0.00133873 0.00742947 0.0015031 0.00550842 0.00383934 0.00796566 0.0130265 -0.00418783 0.0108259 0.012251 0.0043603 -0.00178925 -0.0016036 -0.00402109 -0.00996022 -0.000434118 -0.00759239 -0.00318951 0.00653419 0.0053589 0.0063261 0.00253609 0.011812 0.00477422 0.00678029 0.00449556 0.000450215 0.0055641 0.000424922 0.00768302 0.00135977 0.00748078 0.00683566 0.0056339 0.00307266 -0.00468133 0.00764507 0.00873175 0.0049723 -0.00369451 -0.0146803 -0.0121098 -0.0103663 -0.0111334 -0.00784823 0.00116092 0.00707959 0.00897744 0.00549011 0.0110514 0.00565495 0.00526214 0.00872862 0.00463918 0.00507053 -2.03578e-05 0.00743326 0.00601894 0.00595262 0.00360411 -0.0050478 -0.00770413 -0.00688613 -0.0120148 -0.00730342 -0.00214012 0.00876596 -0.0135478 -0.0170631 -0.00967021 -0.011223 -0.0233627 -0.0163825 -0.00580863 0.00813609 0.0178941 0.0188653 0.0180378 -0.00109175 0.00657847 -0.00120582 0.000515464 0.00662933 0.00663919 0.00552571 0.0129806 0.00833472 0.00278231 -0.0121766 -0.0106717 -0.00535908 -0.0111446 -0.00609602 0.000340756 -0.0156887 -0.0124186 -0.015282 -0.0185224 -0.0236617 -0.0262273 -0.028859 -0.00959378 -0.000116589 0.0172678 0.0231684 0.0152097 0.00088973 0.00285298 0.00495063 0.00134021 0.00878128 0.00142747 0.00661227 0.0080401 0.0114152 -0.000515693 -0.0152332 -0.0151955 -0.0120618 -0.00438606 0.00318347 0.0158623 0.00295083 -0.00375302 0.0016482 -0.0200173 -0.0244754 -0.0376128 -0.0170697 -0.0116719 -0.00156244 0.0105075 0.0191274 0.0245669 0.0166736 0.0070224 0.00726005 0.00123711 0.00902455 0.00727491 0.00616866 0.00872306 0.0181161 -0.00570732 -0.0119994 -0.0213564 -0.0168773 -0.009252 0.00363289 0.00485384 0.0197579 -0.00827949 -0.00693602 -0.0208645 -0.0182125 -0.0224997 -0.00148415 0.000200042 0.00726189 0.0275161 0.0288762 0.0244577 0.00884432 0.00457028 0.00660523 0.0057732 0.00771349 -0.000152597 0.00687925 0.00255548 0.0183509 -0.00458843 -0.00834393 -0.011328 -0.0171907 -0.00565726 0.00493843 0.0231046 0.0177413 -0.00938667 0.000186781 0.00207057 0.000629426 0.00501598 0.00959106 0.00738638 0.026509 0.0195484 0.0162816 0.0181608 0.0103003 0.0126109 0.00335061 0.00979381 0.00602307 0.00140021 0.00630063 0.00104177 0.00422602 0.00895858 0.00603922 -0.00847534 -0.0121537 -0.00902898 0.00157387 0.0150666 0.016544 0.00543157 0.00771271 0.0135348 0.0212368 0.0166365 0.012547 0.0101139 0.0130937 0.0107798 0.0120258 0.0084312 0.00836878 0.00188602 0.00835115 0.00773196 0.00360492 0.00385018 0.000213258 -0.00182989 0.00118251 0.0100937 0.0104157 0.0105582 0.00419767 0.00640338 0.00595659 0.00917466 0.0125856 0.0234209 0.0181707 0.025524 0.0127917 0.0015867 0.00164621 -0.0106687 -0.00157248 0.00425421 -0.00541617 0.00434408 0.00229777 0.00417184 0.00402948 0.000927835 0.00829509 0.00183278 0.00388626 0.000764761 0.00127364 0.017858 0.0179884 0.0100586 0.0133156 -0.00390768 -0.00148417 0.0159897 0.00369309 0.0107561 0.00621562 0.00710096 -0.0146831 -0.0144965 -0.0151834 -0.0240083 -0.00828532 0.000420443 -0.00658085 0.0060587 0.00258882 0.00552525 0.00724289 0.00680412 0.00187202 0.00105579 0.00592996 -0.0059799 0.00750397 0.0127163 0.00905136 -0.00266203 -4.05555e-05 -0.00817423 -0.00314164 -0.00492605 -0.00542233 0.00577062 -0.000465876 -0.00578125 -0.0204922 -0.0284461 -0.0156118 -0.00868879 -0.00215165 -0.00612594 -0.00282364 0.00786278 0.00359368 0.00376665 0.00037988 0.00154639 0.00134021 0.00807453 0.00701072 -0.0114412 0.0135334 0.0247504 0.00575741 -0.0114896 -0.00846085 -0.00769656 -0.00823324 -0.0113949 -1.31471e-05 -0.00230581 -0.0093225 -0.0263343 -0.0264276 -0.0248083 -0.0162308 -0.0163017 -0.00919008 -0.00576634 -0.000596483 0.010305 0.0074142 0.00962601 0.00564174 0.00917526 0.00892402 0.00401738 0.00590239 0.000210617 0.0164794 0.0230061 0.0107516 0.000336274 -0.0128986 -0.0156903 -0.0194275 -0.0106209 -0.00402079 -0.0128481 -0.0150786 -0.0152392 -0.016817 -0.0183119 -0.0121476 -0.0168313 -0.0127911 0.00165136 0.00997797 0.00975188 0.00487724 0.00811831 0.00912504 0.00762887 0.00525123 0.00535517 -0.00133444 0.00147065 0.000426034 0.014313 0.0227143 0.00548105 -0.00469478 0.000958785 -0.00569457 -0.0021459 -0.0049357 -0.0179938 -0.0150314 -0.0160282 -0.0096326 -0.00899179 -0.0146667 -0.0200806 -0.00633345 0.01151 0.00956465 0.0063156 0.00376455 0.00193921 0.00463918 0.00608247 0.01 -5.97836e-05 0.00374792 -0.00132984 -0.0129265 0.0124378 0.0240477 0.0142569 0.0130254 -0.0017234 0.0128957 -0.00368851 -0.00548183 -0.0121396 -0.0174102 -0.00777205 -0.00917433 -0.00902801 -0.014398 -0.0102332 0.000882729 0.0177254 0.00962127 -0.00178533 -0.000740073 0.00101533 0.00360825 0.0102062 0.00371134 0.00842682 0.000984972 0.00233286 -0.012397 0.00267077 0.00955839 0.00805359 0.00623278 -0.00427618 -0.00638505 0.000830022 -0.00428106 -0.00412959 -0.00543457 -0.0163414 -0.00980438 -0.00928309 -0.00265141 -0.00313596 0.00551719 0.00891746 0.0168078 0.00623772 0.00622897 0.000952876 0.00917526 0.0071134 0.0101031 0.0067123 0.00532999 0.00232083 -0.00602792 -0.0116134 -0.00786334 -0.00187754 -0.00426181 0.00414346 0.00189512 0.00311021 0.00513129 -0.0125495 -0.0105917 -0.0134757 -0.00327494 0.00429988 -0.0023954 0.00942949 0.00875133 0.0158573 0.00701709 0.00720464 0.00486958 0.00147368 0.00649485 0.0028866 0.00835052 0.00443687 0.00762088 0.00358335 -0.00374126 0.00532989 -0.0014921 0.00431444 0.000436394 0.00253821 0.00522551 0.00466891 0.00209598 -0.00937297 -0.00315578 0.00250108 -0.000184336 0.00138147 0.00853775 0.00834447 0.00719124 0.0111792 0.00364316 0.000947448 0.00608201 0.0025665 0.00814433 0.00793814 0.00742268 0.00804278 0.00173658 -0.00101522 -0.000362638 -0.00147051 0.00395776 0.00913018 0.00361094 0.00650674 0.00261223 0.00743851 0.00749795 0.00471447 0.00567536 0.0107498 0.0106107 0.00354665 0.0102628 0.00442478 0.00359155 0.001819 0.00597381 0.00642635 0.00979233 0.00082296 0.00721649 0.00762887 0.00587629 0.0085567 0.00453683 0.00710092 0.00419722 0.00323548 0.00781491 0.0083245 0.00335392 0.0034851 0.0116018 0.0117008 0.0140019 0.0132209 0.00317261 0.0109475 0.00626151 0.00533328 0.00617911 0.00816548 0.0036062 0.000950025 0.00265261 0.00445136 0.00134021 0.00938144 0.00670103 0.00587629 0.00309278 0.00989691 0.00556701 0.00845361 0.0079344 0.0014322 0.00578342 0.0105694 0.012139 0.00223749 0.00532344 0.00717491 0.00297327 0.00668607 0.00406528 0.0030154 0.00815067 -9.83208e-05 2.19746e-05 0.00852724 0.00113429 0.0019406 0.0100979 0.00721649 0.0085567 0.00525773 0.00134021 0.00536082 0.000309278 0.00938144 0.00948454 0.00752577 0.00402062 0.00164948 0.00690722 0.00742268 0.00608247 0.00463918 0.00773196 0.00990001 0.00157384 0.00208483 0.00824838 0.0028866 0.00773196 0.00989691 0.00773196 0.0071134 0.000412371 0.00247423 0.00876289 0.00814433 0.00804124 0.00247423 0.0028866 0 0.00721649 0.0028866 0.00371134 0.00340206 0.00216562 0.00889321 0.000129056 0.00303716 0.00960898 0.00734708 0.00240705 0.000497672 0.00593056 0.00221787 0.00493647 0.00259433 0.00240042 0.00266875 0.00333092 0.00504325 0.00828135 0.00464652 0.00433778 0.00257732 0.000824742 0.00628866 0.0071134 0.00938144 0.00319588 0.00319588 0.00340206 0.00247423 0.0067849 0.00549311 0.00153716 0.00915509 0.00314761 0.00922602 0.0083228 0.000759836 0.00202136 0.00113115 -0.000616178 0.000536625 0.00541116 0.00786169 0.000256063 0.00827054 0.0060756 0.00877494 0.00466925 0.00226087 0.00885441 0.0057732 0.00752577 0.00350515 0.00350515 0.00433088 0.00886649 0.00379575 0.00336383 0.00428333 0.000830442 0.00940873 0.00558546 0.00633691 0.00492544 0.00324385 0.00843816 0.00278968 0.00205215 0.00567758 0.0042727 0.00573575 0.0067731 0.00774098 0.00274017 0.00799384 0.00967449 0.00990699 0.00584197 0.00640346 0.00814433 0.00886598 0.000309278 0.00928095 0.00422783 0.00696451 0.00470012 0.00258216 0.00867342 0.00624204 0.0054448 0.0049028 0.00311899 0.00143559 -0.00154643 0.000193444 0.00577888 -0.00342544 0.00595608 0.00200712 -0.00184907 0.00634494 0.000801376 -0.000872393 0.00755566 0.00639116 0.00900237 0.0038869 0.000199514 0.00804124 0.00670103 0.00494607 0.00885529 0.00606694 0.00190507 0.000601055 0.00450847 1.07528e-05 0.000194612 0.00984121 0.00259903 0.00394484 -0.0040159 -0.00455882 -0.00290789 -0.00145338 -0.00322101 0.00166983 0.00108101 -0.000168565 0.00619431 -0.000412885 0.00064422 0.00281123 0.00546469 0.00781647 0.00267055 0.00340206 0.00226804 0.00475316 0.0032323 0.00535216 -0.00188049 0.00137019 0.00448483 0.00306301 0.00305621 0.00242319 0.00385553 0.00448615 -0.00064039 -0.000147257 -0.00419421 -0.00582095 -0.00464129 -0.000494598 -0.00548077 0.00271743 -0.00093547 0.00209418 0.00397901 0.00101236 0.00643437 0.0014176 0.00329247 0.00876289 0.00463178 0.00227254 0.00327759 0.00637008 0.00209349 0.00482856 0.00177971 0.00494308 0.00421264 -0.0019552 0.00747825 0.00725681 -0.00112608 -0.00132775 0.00152458 -0.00358947 -0.0030711 -0.00655069 -0.00437244 -0.00431459 -0.00384621 -0.00159009 0.00614257 0.00770057 0.00690849 0.00622325 0.00463843 0.00741932 7.4263e-05 0.00171563 0.00451722 0.00413899 0.00111857 0.000101018 0.000858791 -0.00240631 0.00271117 -0.00414688 0.00517717 0.00334241 -0.00540124 -0.00244355 -0.00174319 -0.00330777 -0.0115169 -0.00542738 -0.0053698 -0.000579428 -0.00721406 0.00291803 -0.00178132 0.0081834 0.00873108 0.00616001 0.00218462 0.00680412 0.00466785 0.00714996 0.0042189 0.00731726 -0.000515502 0.000577947 0.000896932 -0.00251965 0.00119229 -0.00203571 -0.00056453 -0.00476974 -0.00629382 -0.00347325 -0.00182881 -0.00868434 -0.0129144 -0.00257411 -0.011314 -0.0087684 -0.0016473 0.00456519 0.00355437 -0.000216436 0.000633026 0.00919643 0.00245295 0.00865979 0.00202231 0.0020175 0.00450998 0.00209772 0.00723113 -0.00294569 -0.00261857 0.00118559 -0.00823512 -0.00665417 -0.0053558 -0.000389637 -0.0027287 -0.000704903 -0.00635414 -0.00930743 -0.0044281 -0.00360326 -0.00622657 -0.00573199 -0.00398067 -0.00479822 0.000956846 0.00124034 0.00401533 0.00488056 0.00132043 0.00443299 0.00316717 0.00543901 0.00150265 0.00678045 -0.00344985 0.00117267 -0.00521947 -0.00455422 -0.00538428 -0.00752978 -0.00401141 -0.00343202 -0.00895716 -0.00684726 -0.0107928 -0.0113648 -0.00902091 -0.000992994 -0.00139404 -0.00654105 0.00131612 -0.00337311 0.00661492 0.000976285 0.00100519 0.00208434 0.00308604 0.00896907 0.00780213 0.00812397 0.00718566 0.00657922 0.000516752 -0.00196558 -0.00798584 -0.00498989 -0.0115966 -0.00616954 -0.00346998 -0.00493969 -0.00719304 -0.0106697 -0.00747513 -0.00801095 -0.00919119 -0.000584263 0.00225823 0.00286243 -0.00482714 0.00176732 -0.00384169 0.00589541 0.0103372 0.00920135 0.00651054 0.00371134 0.00958054 0.00013038 0.00376707 0.00631653 0.0038699 -0.00121678 -0.00272565 -0.00601783 -0.00721814 -0.00154384 -0.0104731 -0.00392279 -0.00549853 -0.00391883 -0.00433848 -0.00741529 -0.00380765 -0.00613315 -0.00132941 -0.00369621 -0.00606257 -0.00157428 2.66237e-05 0.00338387 0.002382 0.00908882 0.00190143 0.01 0.00701182 0.00297222 0.000940228 0.00639236 -0.00121623 -0.00187886 -0.010207 -0.00488562 -0.00978987 -0.00864212 -0.00313709 -0.00100029 0.000172485 -0.00137728 -0.00704356 -0.0107129 -0.0125032 -0.00469584 -0.00418344 -0.00763438 -0.00736941 -0.000684844 0.00439677 0.00475586 0.00127777 0.00867501 0.00649647 0.00175258 0.005055 0.00478888 0.00148956 0.0039493 -0.000841534 -0.00275599 -0.0104438 -0.00871181 -0.00307182 -0.00397732 -0.00436138 0.000604223 -0.00250657 -0.0112822 -0.0127006 -0.00943977 -0.0116455 -0.00863036 -0.00511096 -0.00498523 0.00152397 -0.00213715 0.00143426 0.00653164 0.00601187 0.00119364 0.000574034 0.00164948 0.00154781 0.00127287 0.00884841 0.00108278 7.83972e-05 -0.00851159 -0.0034976 -0.00483338 -0.00465943 0.0015957 -0.00194125 -0.00464722 -0.00273625 -0.00905956 -0.00858774 -0.0124655 -0.00616542 -0.00256362 -0.00467586 -0.0114273 -0.00263282 -0.000756975 0.00755819 0.00526999 0.00510961 0.001002 0.0100153 0.00443299 0.000309832 0.00136284 0.00275941 0.00785734 0.00432867 0.00346421 -0.00821475 -0.00688954 -0.00718989 -0.00679234 0.00211879 -0.00243259 -0.00540838 -0.00717255 -0.0120191 -0.0116761 -0.000872471 -0.00968205 -0.0047578 -0.0037342 -0.00466511 -0.00361256 -0.00221837 0.00756946 0.00400609 0.00616832 5.21489e-05 0.00752577 0.00845361 0.00807453 0.00117333 0.00846527 -0.000806451 -0.00307282 0.000839777 -0.00354845 0.000184196 -0.003169 -0.00435329 8.92609e-05 0.0016567 0.00156616 -0.00686412 0.00122977 -0.00255985 -0.00362485 -0.00216819 0.00177842 0.00398948 -0.0019759 0.00120927 0.00303899 0.00356165 0.00492135 0.0023421 0.00402062 -2.04939e-05 0.00683222 0.0025614 0.00490446 -0.00162706 0.00470807 0.00250697 7.78711e-05 -0.00661075 0.00276523 0.000803097 -0.00299471 0.00251465 -0.00512218 3.98129e-05 -0.00497647 -0.00447431 -0.00126997 0.00260687 0.000897105 0.00289358 0.00371473 0.00216301 0.0110743 0.00941057 0.00519241 0.00835095 0.00556701 0.00367132 0.00411404 0.00452445 0.00614353 0.00853288 0.00636822 0.00519605 -0.00018649 -0.00179155 -0.00102094 -0.00492583 -0.00422716 0.00065538 -0.00511232 -0.00489151 0.00320032 0.00190548 -0.00224267 -0.00307706 0.00118058 0.00515134 0.0034967 0.00506401 0.00926863 0.00550309 0.00556208 0.00886598 0.00628866 0.00814433 0.00557984 0.00817905 0.00964749 0.00582625 0.00262421 0.00394447 -2.97029e-05 -0.002922 -0.00331078 -0.00484441 -0.00279308 -0.00191542 -0.0084679 -0.00690336 -0.00150858 -0.00443004 0.00570538 0.00430512 0.00369495 0.00162316 0.00247369 0.00842066 0.00325691 0.0068231 0.00117539 0.000721649 0.00938144 0.000103093 0.00913619 7.70066e-05 0.00646817 0.00282521 0.00647662 0.00578635 0.0021521 0.000467787 -0.00294444 -0.0074486 -0.00809878 0.00124834 -0.00879953 -0.0108964 -0.0030851 0.000841832 0.00327916 0.00414167 0.00631805 0.00418809 0.00900244 0.00412885 0.0071994 0.00985072 0.00737038 0.00391753 0.01 0.00515464 0.000527848 0.00110714 0.00521905 0.00744145 0.00217343 0.00502375 0.00309574 0.00344746 -0.00209716 -0.00509596 -0.00570556 -0.00689415 -0.00354906 -0.00355803 -0.00465115 0.00380138 -0.000968536 0.00593523 0.00604014 0.0105745 0.00354745 0.00597571 0.00184557 0.00502238 0.000757055 0.00979381 0.00845361 0.00164948 0.00444596 0.00805159 0.00157382 0.00395219 0.00796162 0.0049549 0.00577086 -0.00133938 0.00202231 0.00183307 -0.00247676 0.00183178 0.00200374 0.00601962 0.00193138 0.00714636 0.00754048 0.00453184 0.00856057 0.000314977 0.0048009 0.00843778 0.00718901 0.0103681 0.0091873 0.00958763 0.00587629 0.00443299 0.000723996 0.00287518 0.00189954 0.005653 0.00538227 0.00866455 0.00643047 0.000747808 0.00791821 0.00281624 0.000129074 -2.26172e-05 0.00301033 8.81499e-05 0.0049853 0.0059697 0.0103559 0.01018 0.00483781 0.00964086 0.00160394 0.00304022 0.00569694 0.00155709 0.00465198 0.00876289 0.00824742 0.00762887 0.00639175 0.00804109 0.00798401 0.00855951 0.000715286 0.00250107 0.00737579 0.000256489 0.00696529 0.00316544 0.00377244 0.00439933 0.0103564 0.00215951 0.00976063 0.00442898 0.00298858 0.00135224 0.00702502 0.00955394 0.00863435 0.0062716 0.00887253 0.00268041 0.00319588 0.00381443 0.000412371 0.0014433 0.00608247 0.00969072 0.00494845 0.00742298 0.00495597 0.00449432 0.00535426 0.00324454 0.0090261 0.00148703 0.00544468 0.00821187 0.00744179 0.00651317 0.00920825 0.00428487 0.00380312 0.00725498 0.00211306 0.00604707 0.000979492 0.000402222 0.00731959 0.00927835 0.0028866 0.000515464 0.00670103 0.00659794 0.00216495 0.0028866 0.00484536 0.000206186 0.00298969 0.00876289 0.00257732 0.00824742 0.0042268 0.000103093 -2.60071e-05 0.00193576 0.00117177 0.00598095 0.00443299 0.00628866 0.000309278 0.00226804 0.00340206 0.0043299 0.00659794 0.00896907 0.00938144 0.00876289 0.000927835 0.00938144 0.00979381 0.00371134 0.00762887 0.0071134 0.00371134 0.00288648 0.00999177 0.00467036 0.00231814 0.000842077 0.00685354 0.0085253 0.00585966 0.00648623 0.00507928 0.00656435 0.00487423 0.000367554 0.000802829 0.00669157 0.000462968 0.00948059 0.0022742 0.00133239 0.00969072 0.00123711 0.00845361 0.00721649 0.00948454 0.00597938 0.00876289 0.00185567 0.00268041 0.00787155 0.00594289 0.00713288 0.00674973 0.00305401 0.00875198 0.000918231 0.00113564 0.000109456 0.00587068 0.00533819 0.00226867 0.00126867 0.00351296 0.00712043 0.00532766 0.0027611 0.00380543 0.00614029 0.00163629 0.00903013 0.00969072 0.0101031 0.00742268 0.00814433 0.00938345 0.00360879 0.00230413 0.00807395 -2.75194e-05 0.00891574 0.00160252 0.00532448 0.00324204 0.00695546 0.000654975 0.0028348 0.000116294 0.000789593 0.00280778 0.0042206 0.00310465 0.000389631 0.00682827 0.00238904 -0.000658771 0.00810829 0.00879003 0.00619631 0.00567471 0.000103093 0.00938144 0.00917526 0.00608835 0.00401901 0.00309807 -0.00108762 0.00852305 0.00835929 0.00883663 0.000814589 0.00907749 0.00891603 0.00815457 0.00524568 0.00115783 0.0011082 0.000274239 -0.00114381 -0.00304547 0.00432949 0.00101788 0.00407133 0.00166794 0.00871762 0.00382466 0.0051211 0.00500607 0.00864815 0.0071134 0.00597938 0.00370856 0.00764247 0.000873154 0.000853975 0.000459295 0.0107494 0.00753145 -0.000467922 0.00539892 0.00407688 0.00583233 -0.00389946 0.000389242 -0.000963653 0.00205718 0.000580083 -0.00164703 0.00630592 0.00669443 0.000384469 0.0077581 0.0018089 0.00213017 0.00251387 0.00367871 0.00482815 0.00402062 0.00948454 0.000776627 0.00631805 0.00437278 0.00398465 0.00290226 -0.000350412 0.00258105 0.00204794 -0.000833626 -0.00138564 -0.00101659 -0.0039845 0.0051344 0.00549481 0.00112672 -0.0032815 -0.00303006 -0.00533728 0.00299669 -0.00146738 0.005269 0.00580742 -0.000414212 0.00213043 0.00262813 0.0075766 0.00865979 0.00991644 0.00789744 0.00727812 0.00147314 0.00310686 0.00125792 0.00505231 -0.00270012 -0.00400327 -0.000230562 -0.00156757 0.00538686 0.000829141 0.00233289 -0.00621204 -0.00386091 -0.00582263 -0.00399801 0.000894063 0.00380957 -0.00198298 0.00647568 0.00359056 -0.000933058 0.00679724 0.00842721 0.00667053 0.00142876 0.00434927 0.00298044 0.00776968 0.000703473 -0.000918377 -2.02064e-05 -0.00287648 -0.000457198 -0.00516958 -2.94774e-05 -0.00180617 -0.00265056 -8.37012e-05 -0.0051987 -0.0075939 -0.00107113 -0.00708122 -0.00643993 0.000599991 -0.0046565 0.00215562 0.00343787 0.000983809 0.00750489 0.0082639 0.00615961 0.0068147 0.00154639 -0.000194936 0.000852671 0.00849864 0.00586448 0.00189096 0.00272577 -0.00520097 -0.00683219 -0.00176295 -0.005695 0.00278635 -0.00456753 -0.00525549 -0.00992171 -0.00958327 -0.00639039 -0.00915935 -0.000353091 -0.00612882 -0.00586293 -0.0024756 -0.000734061 0.00422164 0.00411754 0.00882214 0.00611759 0.00671781 0.00649485 0.002392 0.00800816 0.00526112 0.000888805 -0.00235669 0.00247496 -0.000383371 0.000186484 -0.00388846 -0.0101687 -0.00970237 -0.00950576 -0.00274539 -0.00467813 6.4322e-05 -0.00467015 -0.00877986 -0.00501409 0.00352618 0.00280963 0.0033028 -0.00304157 0.00265511 0.00477183 0.00868641 0.00599581 0.00173338 0.0028866 0.00943611 0.00831862 0.00263235 -0.00178279 -0.00360569 -0.00531251 -0.00556508 -0.0053905 -0.010271 -0.004586 -0.00180368 -0.00696272 0.00114381 -0.00135467 -0.0081013 -0.00896246 -0.00365358 -0.00478432 -0.000959068 -0.000223649 -0.00249134 0.00476069 0.00139729 0.00680456 0.00276354 0.0060365 0.00917685 0.00515464 0.00207875 0.00365879 -0.000642096 0.000145979 -0.000654521 0.000602026 -0.00253147 -6.58176e-05 -0.00878723 -0.00703551 -0.0057987 0.000513219 0.00302626 -0.00474969 -0.00392888 -0.00501289 -0.010352 0.00171549 -0.00115197 -0.00095862 -0.00568519 0.00217662 0.00326995 -0.000382892 0.00470253 0.00150237 0.000512643 0.00443299 0.00327392 0.00261619 0.0061537 0.00454786 -0.00126342 -0.00284643 0.00207247 0.00323713 -0.00164701 -0.00554838 -0.00228468 -0.00268044 0.00494831 0.00069112 -0.00443475 -0.0105031 -0.00527998 -0.00349467 0.00496097 -0.000993058 -0.00592593 -0.000498377 0.00122015 -0.00139891 0.00476155 0.0040671 0.000255423 0.00773196 0.0073242 0.0011901 0.00869633 0.0032642 0.00412929 -0.00183094 0.00446204 -0.00392229 6.17822e-05 0.00443166 0.00340866 0.00379166 0.001401 -0.00304002 -0.00243356 -0.00535334 -0.00403855 0.00202041 -0.00251112 -0.00392939 -0.0098573 -0.00640414 0.00103693 0.00148597 0.00710414 0.00680752 0.00350639 0.000103093 0.00691774 0.00768813 0.00806096 0.00481733 0.00287746 -0.00211746 0.00164858 -0.0030632 -0.00165303 -0.000550404 -0.00037779 0.00367634 -0.00348994 -0.00507079 -0.00619343 -0.0013659 -0.00366292 0.00447505 -0.00341037 -0.00589511 -0.00533971 -0.00579862 0.00386861 0.000405858 0.00497167 0.00601649 6.41175e-05 0.00886598 0.00691364 0.000215053 0.00187623 0.00529538 -0.0018486 -0.00164813 -0.00598003 -0.00814935 -0.002362 -0.00295493 0.00309843 0.00437253 0.00266222 -0.00362299 -0.00369003 0.00481021 -0.000748712 -0.000569118 0.00123425 0.000645206 0.00347113 -0.0025002 -0.00374048 -1.83968e-05 0.00900841 0.00141213 0.00342602 0.00752577 0.00752757 0.00666858 0.00173666 0.000721318 0.00833033 -0.0028338 0.000455521 0.000873898 0.000462079 -0.00504532 -0.0062624 -5.66715e-05 -0.00325415 0.00157666 0.000637659 -0.00568245 0.0048855 -0.000992307 -0.00467036 0.00205393 0.00371972 -0.000131708 0.000818484 0.00520086 0.0088663 0.0103325 0.00722695 0.00938144 0.00268041 0.00562801 0.0028537 0.00636976 0.00510607 0.00440117 -0.00105416 -0.00449135 -0.00514539 -0.00267184 -0.00699918 -0.00679432 -0.00697803 0.00233738 -0.00285506 -5.57823e-05 -0.000278371 0.000286353 0.00402247 -0.000201185 0.00658069 0.00472292 0.00583727 0.0024459 0.00241733 0.0085847 0.00390663 0.00525773 0.00728706 0.00594984 0.00392761 0.00937709 0.00414148 0.00861177 0.00261738 -0.000904235 -0.00759268 -0.00828631 -0.00159589 -0.00303628 -0.00243647 -0.00355843 -0.006666 -0.00132545 -0.0040522 -0.000453914 0.00394216 0.00390224 -0.000300826 0.00110845 0.00981661 0.00402958 0.0008079 0.0033159 0.000995284 0.00876289 0.000864583 0.00681181 0.00150003 0.00735146 0.00472453 0.0106322 0.00571117 0.000601247 -0.00252587 -0.00717396 -0.00947988 -0.00859727 -0.00750268 -0.00309441 -0.00435677 -0.00327143 -0.000546275 0.00397674 -0.0028354 0.0082319 0.00758953 0.00366585 0.00749604 0.0079573 0.00483267 0.00331182 0.00948454 0.00113402 0.00701031 0.00859131 0.00507065 0.00873601 0.00660238 0.0111542 0.00428658 0.0041237 -0.00369194 0.000868997 -0.00646733 -0.00657932 -0.00421228 -0.00662542 -0.00511549 -0.00854888 -0.00560636 -0.00385871 -0.00327509 0.00632855 0.0046749 0.0041642 0.0085895 0.00426968 0.00482606 0.00875888 0.00515464 0.00329897 0.00247423 0.00789353 0.00346311 0.00261469 0.00195821 0.00587352 0.00396516 0.000663242 -0.00546169 0.00256524 -0.00430458 -0.00663744 -0.00831864 -0.00764533 -0.00724771 -0.0058887 0.00343187 -0.00281501 -0.00119314 0.0021687 0.00640785 0.00813114 0.00934865 0.00625461 0.00470622 0.00519717 0.00979381 0.000927835 0.00360825 0.00588645 0.00307829 0.00257854 0.00804238 0.00772197 -0.00204272 0.00461456 -0.00199756 -0.00324982 -0.0057402 -0.00311449 -0.00313063 -0.00557468 -0.00439623 -0.00381212 0.00526384 0.00120227 0.00772994 0.00783719 0.00624352 0.00663595 0.00892435 0.00934431 0.00356817 0.00498201 0.000206186 0.00175258 0.000206186 0.00909657 0.00140528 0.000180647 0.00720129 -0.000484968 0.00787488 0.000954655 0.00334382 -0.0018868 -0.00122502 0.00435524 -0.00301712 -0.0042128 0.000334952 -0.000766181 -0.000804409 0.0051281 0.00480989 0.00231445 0.00284876 0.00525334 0.00496199 0.00217052 0.00478252 0.000834338 0.00402062 0.00546392 0.01 0.0029919 0.00205236 0.00774646 0.00700752 0.00524681 0.00211896 0.00748797 0.0036809 -0.000732718 0.00210892 0.00764924 0.00461287 0.00596375 0.00669241 0.00302244 0.00204228 -0.000295684 0.00934485 0.00271282 0.00207183 0.000666051 0.00936361 0.00775963 0.000627297 0.00537128 0.00742268 0.00773196 0.00257732 0.00597938 0.00350572 0.00807033 0.00303557 0.0071185 0.00760296 0.00709406 -4.43586e-05 0.00508911 0.00323731 0.0025434 0.00276068 0.00440955 0.00662774 0.00524485 -0.000259226 0.00676732 -0.00119403 0.00464543 0.00750858 0.00569882 0.00153964 0.00690873 0.00195876 0.000618557 0.00989691 0.00309278 0.00185567 0.00113402 0.00618557 0.00659794 0.00803285 0.00410471 0.00501324 0.00626023 0.00733438 0.00186844 0.0104021 0.00295069 0.00608721 0.00326346 0.00442259 0.00737694 -0.000109626 0.00934413 0.00620875 0.000338424 0.00676677 0.00751805 0.000612165 0.00298969 0.00670103 0.00731959 0.0028866 0.00762887 0.00917526 0.00123711 0.00494845 0.00587629 0.00773196 0.000103093 0.00690722 0.00649485 0.0043299 0.00474227 0.00340206 0.00928311 0.00537319 0.0079403 0.00154648 0.00494845 0.00680412 0.000206186 0.00515464 0.00742268 0.00247423 0.00525773 0.0102062 0.00762887 0.00154639 0.00618557 0.0014433 0.00835052 0.0102062 0.00113402 0.00391753 0.00804124 0.00731951 0.00537596 0.00209467 0.0097506 0.00641921 0.00395978 0.00378129 0.000127463 0.00945782 0.00159231 0.00475031 0.00430337 0.00374386 0.000744448 -0.000387485 0.00298243 0.000426581 0.000467126 0.00495629 0.00865979 0.00618557 0.00113402 0.00402062 0.00762887 0.00350515 0.00969072 0.00783505 0.00731959 0.00290428 0.00138827 0.00795947 0.00612516 0.00529923 0.00322316 0.00900115 0.00495538 0.00172186 0.00676288 0.00600173 0.00267906 0.000548103 0.00854281 0.0024762 0.00718172 0.00340578 0.00249354 0.00149954 0.000102838 0.00762834 0.00175258 0.00608247 0.00659794 0.00319588 0.00814754 0.00845389 0.00289403 0.00038211 0.000715338 0.00381026 0.000249289 0.00657491 0.00808188 0.00149624 0.000336508 0.00107587 0.00609559 0.0010209 0.00315334 0.0111986 0.00661761 0.00124651 0.00297429 7.99051e-05 0.00189747 0.00170052 0.000841765 0.00185812 -1.38255e-05 0.00123711 0.00649485 0.00206186 0.00980656 0.00742106 0.0080329 0.00381289 0.00846429 0.00302603 0.00673888 0.000293123 -8.33361e-05 0.000368377 0.00309254 0.00162366 0.00430119 0.00256516 0.00937938 0.00613228 0.00473068 0.00441417 0.000835622 0.00784978 0.00636808 0.00728102 0.000391662 0.00177117 0.00561437 0.00413329 0.0043299 0.00206186 0.000626795 0.00458089 0.00735208 0.00252684 -0.00173222 0.00400306 0.00530197 -0.000789269 0.00209823 -0.00183138 -0.00189064 0.000259119 -0.00110045 -0.00168293 0.00304996 -0.0028616 -0.00191787 0.000522376 0.00613272 0.00549718 0.00416971 0.00260956 0.00399666 0.00442182 0.00671862 0.00815848 0.000824742 0.00257732 0.00730983 0.0055744 0.00896424 0.00762342 0.0036664 0.00473215 0.00317289 0.0017567 -0.00926009 -0.0073015 -0.0015026 -0.00434694 -0.00294765 -0.00231095 0.00418131 -0.00156352 0.000166816 -0.000794769 0.00013136 0.0044669 0.00386981 0.0016994 0.00831566 0.00217829 0.00368774 0.00337123 0.00618557 0.00254875 0.00652072 0.00190351 0.00337474 0.0003415 0.00639771 0.000656525 0.00059159 -0.00375525 0.00195369 0.00108854 -0.00392885 -0.00621633 -0.0052107 -0.00909019 -0.00669745 -0.0117364 -0.00799535 0.00158456 0.00193863 0.00276381 0.00427324 0.00662894 0.0075845 7.17294e-05 0.00771132 0.00933046 0.00187313 0.00412771 0.00124657 0.00487915 0.00153875 0.00626273 -0.00104362 0.000253858 -0.00454465 -0.00802358 -0.00462247 -0.000491585 -0.00299738 -0.00715575 0.00311 -0.00685836 -0.0041338 -0.00981134 -0.00496153 -0.00735844 -0.00806506 -0.0058805 0.00227374 0.00364646 0.00931878 0.00425321 0.00661398 0.00380881 0.00907216 0.00421822 0.00920603 0.00406586 0.0059056 0.00496775 0.0031478 -0.00622505 -0.00315198 -0.00797008 -0.00843745 -0.00209903 -0.00159017 -0.00346036 -0.00586192 -0.00761075 -0.00928595 -0.0101728 -0.00898769 -0.00272233 -0.00475664 -0.00833588 0.00224973 0.00509558 0.00579772 0.00422244 0.00771161 0.00363791 0.00175258 0.00254748 0.00459275 0.00876509 -0.0011956 0.00383182 0.000412609 0.000952074 -0.00108505 0.0025657 -0.00923333 -0.00917197 -0.00745984 -0.010495 -0.00431404 -0.00918942 -0.0101154 -0.0143668 -0.01289 -0.0124421 -0.00992307 0.000907486 -0.00205387 0.00753634 0.00805381 0.00884433 0.00605794 -3.65004e-06 0 0.00124687 0.00518057 0.000209439 0.00169569 0.00137724 -0.00308735 0.00688063 0.00559299 0.00128984 -0.0049422 -0.00821823 -0.00911626 -0.0140208 -0.0124939 -0.00871551 -0.0153201 -0.0187288 -0.0121812 -0.0151754 -0.0107156 0.00293923 0.000439827 0.011904 0.0105253 